tree
version=v4
num_class=8
num_tree_per_iteration=8
label_index=0
max_feature_idx=19
objective=multiclass num_class:8
feature_names=Column_0 Column_1 Column_2 Column_3 Column_4 Column_5 Column_6 Column_7 Column_8 Column_9 Column_10 Column_11 Column_12 Column_13 Column_14 Column_15 Column_16 Column_17 Column_18 Column_19
feature_infos=[-0.082908429867316155:22.990424891832557] [-0.22754990576043777:14.995889808772729] [-0.1400365245949689:22.362317937442256] [-0.34873934559452019:16.39570091170112] [-17.801538145714961:6.9484158932777582] [-17.507317174790629:7.9650732774476287] [-3.9436755398948096:5.4675197799762305] [-23.106475820112998:0.046044699082865265] [-0.056110865048877946:23.087384944203116] [-0.061205500623085406:16.36164697246064] [-0.061309702979120834:16.44845614622858] [-3.271072963204777:5.4333163066133343] [-21.78424087070146:4.7082770850255633] [-14.776661989591064:13.312720517308025] [-0.10923853510106096:23.149615252940418] [-0.045610544504384287:23.148974997677012] [-0.93322088686325766:15.599224734270999] [-0.13067767550390449:16.848470368693373] [-0.14320978412717664:23.150693392427968] [-0.31319960051436785:13.6941762605561]
tree_sizes=2196 1581 879 1887 1898 1780 1164 570 2241 2611 2574 2250 2499 2362 2634 2629 2245 2401 2367 2254 2283 2378 2526 2508 2257 2290 2684 2264 2280 2702 2413 2742 2358 2618 2691 2366 2493 2381 2521 2521 2037 2286 2360 2359 2274 2600 2636 2632 2358 2395 2920 2370 2383 2493 2404 2628 2371 2504 2585 2269 2486 2596 2542 2633 2463 2607 2810 2476 2690 2592 2208 2836 2370 2721 3039 2377 2495 2489 2521 2624 2373 2621 2711 2371 2598 2481 2751 2515 2472 2606 2699 2264 2499 2480 2642 2519 2474 2399 2809 2575 2385 2591 2439 2528 2271 2412 3163 2491 2703 2473 2960 2524 2473 2723 2930 2158 2806 2608 2642 2531 2380 2526 3055 2478 2820 2483 3176 2752 2599 2518 2944 2592 2812 2699 2636 2530 2265 2733 2616 2478 2599 2486 2772 2765 2380 2743 3056 2695 2609 2492 2998 2883 2384 2838 3287 2703 2602 2498 2888 2887 2602 2630 2856 2582 2714 2504 2978 3112 2490 2524 3066 2811 2727 2608 3100 2884 2717 2656 2854 2703 2926 2410 3190 2772 2501 2524 2847 2698 2931 2716 3419 2538 2593 2869 2741 2707 2710 2404 3313 2903 2499 3412 2854 2599 2828 2606 2999 3016 2610 2639 3304 2388 2613 2714 3216 2898 2714 2646 3200 2614 2941 3049 3323 2788 2376 2854 3307 2833 3066 2303 3519 2790 2391 3192 3203 2820 2846 2715 3339 2673 2391 2545 2974 2620 2641 2720 3539 2905 2500 2878 2975 2513 3052 2293 2877 3138 2510 2876 2763 2394 2834 2738 3449 2913 2284 2650 3223 3078 3061 2851 3324 3027 2718 2782 2868 2845 2847 2511 2893 3143 2508 2888 2985 3290 3191 2436 3219 2803 2743 2556 2986 2634 2968 2532 3547 3013 2731 2900 3344 2399 2531 2843 3449 2560 2724 2885 3459 2744 2752 3070 3231 2800 2523 3324 3221 3154 2974 2947 3565 2446 2631 2773 3110 2734 2843 2746 3351 2448 2298 2860 3013 2615 2629 3100 3537 2096 2938 2667 3017 3180 2533 2421 3554 2673 2412 3092 3023 2952 2750 2746 3234 2673 2743 2677 3012 2747 2863 2866 3549 2332 2865 3226 2783 3088 2976 2623 3474 1982 2743 3101 3131 2972 3291 2637 3554 2108 2538 3200 2673 2642 3087 2545 3040 1987 2631 2896 3023 2977 3089 2767 3589 1866 2750 3016 2667 2856 2869 2751 3561 1756 2648 3022 2684 3072 2982 2755 3563 1981 2538 3453 2439 2879 3207 2874 3264 1979 2748 3234 2562 2759 2775 2756 3597 1519 3072 2651 2649 2870 3204 2550 3022 1525 2638 3029 2434 2772 2538 2901 3583 1407 2761 2894 1859 2638 2895 2664 3597 1287 2886 3163 2090 3102 2997 2666 3361 1294 2772 3252 1983 2764 3009 2885 3373 953 2422 3141 1855 2992 2765 3124 3572 1177 2538 2826 1853 2989 3227 2901 3604 1062 2638 3496 1752 2869 3001 3106 3613 837 2670 2814 1757 3005 3104 3002 3604 948 2662 3124 1399 2888 3126 3003 3630 829 2778 2837 1514 2773 3008 2900 3394 830 2219 3596 1405 2901 2783 2672 3048 716 2883 2947 1406 3232 2895 2457 3633 600 2787 3052 1289 2907 3023 2905 3300 602 2445 2725 1404 3133 2907 2569 3643 603 2662 3500 1282 3014 2571 3131 3064 488 2906 2928 1169 2905 2901 2792 3540 490 2681 2956 941 3008 3028 2799 3610 488 2787 3265 1046 2910 3138 2685 3626 489 2451 3524 830 2796 3036 2795 3642 489 2569 3052 938 3037 3376 3140 3312 375 2783 3611 821 3128 3024 3151 3642 370 3015 3046 824 2912 3030 2795 3619 372 2686 2731 827 2924 2699 2817 3647 374 2992 3643 714 2812 3264 2488 3620 371 2460 3184 599 2682 3045 2806 3434 372 2465 3280 598 3252 3053 3249 3626 375 3009 3067 713 3252 2826 2690 3635 374 2463 3614 599 2698 2938 2702 3415 226 2809 2822 599 2824 3164 2484 3513 226 2587 3064 600 2696 3064 2924 3646 226 2915 2944 601 2812 2920 2918 3301 226 2915 3633 484 3279 2696 2820 3643 226 2697 2844 487 2687 3298 2943 3335 226 2819 3545 483 2816 2804 2834 3650 226 2577 3199 490 3173 2938 3149 3660 226 2589 2968 483 3051 3056 2826 3330 226 2707 3080 484 2941 2821 2844 2642 226 3157 2847 490 2715 3312 3069 3217 226 2937 3310 375 2951 2962 3181 2969 226 3050 2975 482 2708 2949 2835 3557 226 2713 2980 373 3064 2644 2612 3323 226 2611 2745 488 2966 2857 3076 2312 226 2608 3433 374 3066 3098 3422 2644 226 2493 3206 485 2726 2743 2724 3104 226 2614 3317 372 2969 2967 2747 2992 226 2487 2627 374 2835 3318 2622 2876 226

Tree=0
num_leaves=20
num_cat=0
split_feature=18 8 1 6 7 6 0 15 16 14 2 4 5 7 7 11 0 0 0
split_gain=44.6058 26.1053 15.5335 15.8598 11.9968 9.57294 9.29268 13.7978 9.22835 8.38333 7.20933 6.94582 8.68453 5.4307 6.33014 0.487414 7.10543e-15 7.10543e-15 3.55271e-15
threshold=-0.044067431290787037 -0.046283693308669695 -0.17754568908249538 0.43167236863919528 0.04582020835421239 -0.68916227029972543 -0.054322494223106865 -0.045276281358960453 -0.10012254115205614 -0.043950102544529294 -0.093836014141625471 0.020080663233377125 0.018857110462998997 0.045868527192790727 0.045849614649668712 -0.1985696347832259 -0.036401873105302136 -0.045423966108554419 -0.053853779118692206
decision_type=2 2 2 2 2 2 2 2 2 2 2 2 2 2 2 2 2 2 2
left_child=4 15 -3 5 16 8 7 11 -4 -6 -10 -5 -13 14 -7 -2 17 18 -1
right_child=1 2 3 6 9 13 -8 -9 10 -11 -12 12 -14 -15 -16 -17 -18 -19 -20
leaf_value=-1.3841630230096424 -1.3410456489901923 -1.0607827178637657 -1.315175224578522 -1.3399400752973858 -1.3288843383693216 -1.1377780286127839 -1.3687639608598388 -1.1022417313440063 -1.2548109009512918 -1.1685761529123913 -1.091580842163373 -1.1326450078961827 -1.3043160340847346 -1.1901348399221163 -0.97454796982486525 -1.3841630230096424 -1.3841630230096424 -1.3841630230096424 -1.3841630230096424
leaf_weight=12.52395379543305 4.6385014057159424 7.4216022491455069 5.7981267571449306 9.0450777411460894 9.0450777411460859 4.8704264760017377 6.493901968002322 6.0300518274307242 4.638501405715945 5.1023515462875357 6.4939019680023184 5.5662016868591291 6.2619768977165222 4.6385014057159415 4.6385014057159424 6.0300518274307233 4.638501405715945 4.6385014057159415 6.0300518274307242
leaf_count=54 20 32 25 39 39 21 28 26 20 22 28 24 27 20 20 26 20 20 26
internal_value=-1.26212 -1.21944 -1.19778 -1.21355 -1.34605 -1.16214 -1.2614 -1.23548 -1.21287 -1.27107 -1.15959 -1.27397 -1.22353 -1.10143 -1.05815 -1.36542 -1.38416 -1.38416 -1.38416
internal_weight=124.544 82.5653 71.8968 64.4752 41.9784 31.078 33.3972 26.9033 16.9305 14.1474 11.1324 20.8733 11.8282 14.1474 9.50893 10.6686 27.831 23.1925 18.554
internal_count=537 356 310 278 181 134 144 116 73 61 48 90 51 61 41 46 120 100 80
is_linear=0
shrinkage=1


Tree=1
num_leaves=14
num_cat=0
split_feature=7 18 14 6 15 18 17 7 7 18 9 0 0
split_gain=44.3638 44.4239 30.9113 6.45687 8.52133 4.71024 9.87809 2.23423 5.67242 0.485044 0.375441 0.292591 3.55271e-15
threshold=0.04584690171315766 -0.044025508553007311 -0.043859211576305068 -0.42767210370272357 -0.045360106287410766 -0.044024458623526525 -0.065485873853789747 0.045828338327261207 0.045831488208288917 -0.044093675262236585 -0.061138947448941522 -0.05360085025915514 -0.036401873105302136
decision_type=2 2 2 2 2 2 2 2 2 2 2 2 2
left_child=5 3 -3 11 -5 7 -7 9 -9 -1 -10 -2 -11
right_child=1 2 -4 4 -6 6 -8 8 10 12 -12 -13 -14
leaf_value=-2.4998559256261421 -2.497196008991502 -1.7151805184073681 -2.2634188914359274 -2.2220424104526399 -2.5022740316576328 -2.5530542583189404 -2.3178616295718322 -2.3296212610091875 -2.5530542583189404 -2.5530542583189404 -2.497196008991502 -2.5530542583189404 -2.5530542583189404
leaf_weight=1.8797582164406801 1.7902459204196932 1.7902459204196928 2.4168319925665847 2.4168319925665847 1.9692705124616621 3.7595164328813553 3.4014672487974194 1.7902459204196919 3.6700041368603702 17.365385428071026 1.7902459204196932 1.9692705124616612 2.0587828084826461
leaf_count=21 20 20 27 27 22 42 38 20 41 194 20 22 23
internal_value=-2.45736 -2.294 -2.03013 -2.43029 -2.34786 -2.51386 -2.44134 -2.53204 -2.48409 -2.54836 -2.53474 -2.52646 -2.55305
internal_weight=48.0681 12.3527 4.20708 8.14562 4.3861 35.7154 7.16098 28.5544 7.2505 21.3039 5.46025 3.75952 19.4242
internal_count=537 138 47 91 49 399 80 319 81 238 61 42 217
is_linear=0
shrinkage=1


Tree=2
num_leaves=7
num_cat=0
split_feature=12 11 1 0 0 0
split_gain=47.4247 2.40065 3.28751 4.44089e-16 4.44089e-16 4.44089e-16
threshold=0.15853292279013534 -1.0988960497376508 -0.060354203222535777 -0.029447618944609601 -0.040278135053493196 -0.045974692300234453
decision_type=2 2 2 2 2 2
left_child=1 2 -1 4 5 -3
right_child=-2 3 -4 -5 -6 -7
leaf_value=-4.9878603994369257 -3.2971415083188949 -4.9878603994369257 -4.3961087875456153 -4.9878603994369257 -4.9878603994369257 -4.9878603994369257
leaf_weight=0.21123727783560753 0.17743931338191021 3.3628974631428727 0.16898982226848591 0.18588880449533496 0.17743931338191021 0.25348473340272892
leaf_count=25 21 398 20 22 21 30
internal_value=-4.8997 -4.96492 -4.72486 -4.98786 -4.98786 -4.98786
internal_weight=4.53738 4.35994 0.380227 3.97971 3.79382 3.61638
internal_count=537 516 45 471 449 428
is_linear=0
shrinkage=1


Tree=3
num_leaves=17
num_cat=0
split_feature=18 5 5 17 4 11 1 19 10 5 17 16 1 10 5 4
split_gain=98.8673 34.8573 12.6604 11.3356 9.19014 8.02054 8.85842 6.52368 6.39779 6.17014 2.7256 3.57235 2.11926 1.63119 0.187491 1.42109e-14
threshold=-0.044074378464862847 -0.0038434957118295451 -0.030503077810902255 -0.060273864218646819 0.012847047030933617 0.43414709403208496 -0.12612669373237492 -0.067955156198168887 -0.061222865938210184 -0.01177921282422619 -0.062410600988190269 -0.10258921893302891 -0.12132283366219977 -0.06119584558242195 0.0027169842741204824 0.015338732681959918
decision_type=2 2 2 2 2 2 2 2 2 2 2 2 2 2 2 2
left_child=2 3 -1 8 9 7 -7 10 -2 -4 14 -12 -13 -11 -3 -16
right_child=1 5 4 -5 -6 6 -8 -9 -10 13 11 12 -14 -15 15 -17
leaf_value=-1.2433893349322465 -1.1383847607346338 -1.3503384382816666 -1.1084689276299011 -1.0555309099184822 -1.1578300522527103 -1.3388208425363444 -1.1663859805206638 -1.2356112183250159 -1.2792317371358359 -1.017689847863815 -1.2495007122664989 -1.2939470928792449 -1.3717282589515507 -0.94393184555386933 -1.3717282589515507 -1.3717282589515507
leaf_weight=4.6751210093498257 5.1426331102848062 4.6751210093498221 6.0776573121547761 5.3763891607522956 7.4801936149597159 6.0776573121547699 5.843901261687277 5.1426331102848044 8.6489738672971725 6.7789254635572496 4.9088770598173168 5.1426331102848097 10.98653437197208 5.3763891607522885 4.6751210093498221 28.51823815703392
leaf_count=20 22 20 26 23 32 26 25 22 37 29 21 22 47 23 20 122
internal_value=-1.24905 -1.2992 -1.09202 -1.1787 -1.06449 -1.32961 -1.25429 -1.34362 -1.22671 -1.0262 -1.35305 -1.3242 -1.34693 -0.985066 -1.36909 -1.37173
internal_weight=125.527 95.1387 30.3883 19.168 25.7132 75.9707 11.9216 64.0492 13.7916 18.233 58.9065 21.038 16.1292 12.1553 37.8685 33.1934
internal_count=537 407 130 82 110 325 51 274 59 78 252 90 69 52 162 142
is_linear=0
shrinkage=1


Tree=4
num_leaves=17
num_cat=0
split_feature=6 17 15 0 0 12 16 19 11 13 2 5 3 0 0 0
split_gain=22.5433 14.0909 10.7354 10.4877 11.3665 10.0597 6.34418 4.51395 2.73824 2.711 2.83379 1.98367 0.375962 3.55271e-15 3.55271e-15 8.88178e-16
threshold=0.81788209210897211 -0.062456751758437359 -0.045453766173671327 -0.054322494223106865 -0.049465846540531204 0.059973167176566623 -0.10996090664691642 -0.081543203455185689 0.36352801193709344 0.23310768864456685 -0.0069136722799657468 -0.013175503021956419 -0.03903027735917991 -0.042299448498914323 -0.057192926022790906 -0.05975018753620269
decision_type=2 2 2 2 2 2 2 2 2 2 2 2 2 2 2 2
left_child=6 2 5 7 -5 -2 11 8 15 10 12 -1 13 14 -8 -4
right_child=1 -3 3 4 -6 -7 9 -9 -10 -11 -12 -13 -14 -15 -16 -17
leaf_value=-2.2019966898465682 -2.1490988130098216 -1.9171619684179333 -2.2901598179078122 -1.8934257416322138 -2.2061949340399609 -1.8703353985685547 -2.2901598179078122 -2.1138335617853241 -2.1864384907769367 -2.1579151258159461 -2.1973565252117657 -2.0697519977547021 -2.2481773759738863 -2.2901598179078122 -2.2901598179078122 -2.2901598179078122
leaf_weight=2.2685220837593079 2.835652604699141 2.9490787088870993 5.2176007926464134 2.2685220837593079 2.3819481879472688 2.3819481879472733 8.8472361266613113 2.8356526046991339 3.8564875423908234 2.268522083759307 4.3101919591426876 2.268522083759307 2.3819481879472724 2.268522083759307 9.3009405434131622 2.2685220837593079
leaf_count=20 25 26 46 20 21 21 78 25 34 20 38 20 21 20 82 20
internal_value=-2.19165 -2.12346 -2.14877 -2.18394 -2.05362 -2.02184 -2.24593 -2.22668 -2.25489 -2.26293 -2.27172 -2.13587 -2.28577 -2.29016 -2.29016 -2.29016
internal_weight=60.9098 26.9954 24.0463 18.8287 4.65047 5.2176 33.9144 14.1783 11.3426 29.3774 27.1088 4.53704 22.7986 20.4167 18.1482 7.48612
internal_count=537 238 212 166 41 46 299 125 100 259 239 40 201 180 160 66
is_linear=0
shrinkage=1


Tree=5
num_leaves=16
num_cat=0
split_feature=6 18 3 2 13 11 10 5 12 2 7 19 5 14 1
split_gain=35.1182 20.1801 12.1292 20.0967 17.7859 8.38981 7.27688 5.80916 12.2854 5.56674 3.63307 3.73439 6.18481 0.293118 0.182699
threshold=0.81788209210897211 -0.044072091238249067 -0.078227006587122186 -0.13404932607699507 -0.13698712636075258 -0.047109269061032237 -0.061220681519516103 0.00063384977305074041 0.065872862259487172 -0.1100430918066793 0.045856654469775361 -0.11568621497049116 0.010121790969026491 -0.043982138967821847 -0.11949938269179815
decision_type=2 2 2 2 2 2 2 2 2 2 2 2 2 2 2
left_child=7 14 3 -3 -5 6 -6 13 10 -4 11 -9 -13 -1 -2
right_child=1 2 9 4 5 -7 -8 8 -10 -11 -12 12 -14 -15 -16
leaf_value=-1.9604349319762155 -1.9604349319762158 -1.9165190911877004 -1.7896511066875451 -1.5249361774901065 -1.7866809532042642 -1.8539461938550446 -1.5787702093745781 -1.9945916970339497 -1.7486629886182643 -1.9701940077069968 -1.9945916970339499 -1.7554943416298112 -1.945796318380044 -1.9945916970339499 -1.9945916970339499
leaf_weight=2.9276776313781765 2.9276776313781738 5.1234358549118069 2.9276776313781738 4.6842842102050843 3.3668292760849052 4.9770519733428848 3.3668292760848999 3.3668292760849026 3.6595970392227164 4.098748683929446 9.0758006572723371 2.9276776313781765 4.0987486839294434 17.712449669837952 3.366829276084899
leaf_count=20 20 35 20 32 23 34 23 23 25 28 62 20 28 121 23
internal_value=-1.89155 -1.81663 -1.78089 -1.74364 -1.68962 -1.75549 -1.68273 -1.95118 -1.91677 -1.89497 -1.94836 -1.908 -1.8665 -1.98975 -1.9787
internal_weight=78.6081 34.8394 28.5449 21.5184 16.395 11.7107 6.73366 43.7688 23.1287 7.02643 19.4691 10.3933 7.02643 20.6401 6.29451
internal_count=537 238 195 147 112 80 46 299 158 48 133 71 48 141 43
is_linear=0
shrinkage=1


Tree=6
num_leaves=10
num_cat=0
split_feature=5 19 8 4 13 16 2 15 0
split_gain=55.3425 26.1761 10.5123 10.3269 7.11133 5.73818 5.10096 2.32264 3.55271e-15
threshold=-0.01330742971453844 -0.12105664688691188 -0.046305737819148603 0.006874048023686399 -0.084518676544478963 -0.09652074840658835 0.12017781149927566 -0.045463449511630886 -0.066883495103501459
decision_type=2 2 2 2 2 2 2 2 2
left_child=1 -1 -3 4 -2 -6 7 -5 -9
right_child=3 2 -4 6 5 -7 -8 8 -10
leaf_value=-2.0412255862409108 -2.423430117472769 -2.3170472773019584 -2.6301781826128092 -2.5930593214969333 -2.4908479648010431 -2.7167888585498532 -2.5219148376915044 -2.7167888585498527 -2.7167888585498532
leaf_weight=1.9243201240897176 2.3861569538712502 2.0012929290533061 2.309184148907661 1.6164289042353654 1.7703745141625402 3.0789121985435477 1.5394560992717732 1.5394560992717803 23.168814294040203
leaf_count=25 31 26 30 21 23 40 20 20 301
internal_value=-2.62244 -2.34789 -2.4848 -2.6712 -2.56476 -2.6343 -2.69884 -2.70919 -2.71679
internal_weight=41.3344 6.2348 4.31048 35.0996 7.23544 4.84929 27.8642 26.3247 24.7083
internal_count=537 81 56 456 94 63 362 342 321
is_linear=0
shrinkage=1


Tree=7
num_leaves=4
num_cat=0
split_feature=12 0 2
split_gain=21.5401 1.11022e-16 1.11022e-16
threshold=-0.095181011892754755 -0.023764878572465547 -0.032579142070684831
decision_type=2 2 2
left_child=-1 2 -2
right_child=1 -3 -4
leaf_value=-4.131986929852264 -6.3736613380527229 -6.3736613380527221 -6.3736613380527229
leaf_weight=0.044609512668103091 0.86669910326600053 0.055230825208127388 0.17418952565640211
leaf_count=21 408 26 82
internal_value=-6.286 -6.37366 -6.37366
internal_weight=1.14073 1.09612 1.04089
internal_count=537 516 490
is_linear=0
shrinkage=1


Tree=8
num_leaves=20
num_cat=0
split_feature=18 8 1 6 7 0 15 5 18 18 12 18 4 5 11 0 19 18 3
split_gain=35.4879 20.3844 11.1037 10.9999 10.6672 7.82785 10.9618 6.93404 8.74429 8.26286 6.71857 5.94108 5.78917 6.44936 2.57584 0.525426 0.0017636 0.000655337 0.00021527
threshold=-0.044067431290787037 -0.046283693308669695 -0.17754568908249538 0.43167236863919528 0.04582020835421239 -0.054322494223106865 -0.045276281358960453 0.010121790969026491 -0.0440453314898872 -0.0440271427565068 0.046695118720607796 -0.044021696695068717 0.020080663233377125 0.018857110462998997 -0.50017016083604726 -0.056966315830277517 -0.12056479019508039 -0.044074968813710702 -0.11740300375238563
decision_type=2 2 2 2 2 2 2 2 2 2 2 2 2 2 2 2 2 2 2
left_child=4 15 -3 7 16 6 12 8 -4 14 -6 -10 -5 -14 -9 -2 18 -18 -1
right_child=1 2 3 5 10 -7 -8 9 11 -11 -12 -13 13 -15 -16 -17 17 -19 -20
leaf_value=-0.11499947415720996 -0.11737344099572572 0.16574328598908072 -0.043413002415975711 -0.073335137810382117 -0.078143914720036511 -0.10132030278651352 0.13865951842062077 0.12616109628429956 0.17846247797924383 0.020945623614935838 0.0603337824659015 0.021697419862422088 0.10801877017823452 -0.038389075008356366 0.22350076776307667 -0.071018531151303702 -0.11649550281137214 -0.11796472854131586 -0.11582050076914513
leaf_weight=5.4041359871625883 5.6303546279668808 8.0914094746112806 7.3797570914030066 8.7004509717226046 6.8871351331472379 6.0960078239440945 6.3848652541637412 5.0493996292352668 4.9000941514968863 4.7786805331706992 7.1316123455762863 4.7716223746538189 5.9296976476907712 6.1079875081777573 5.8893471062183371 4.3224416971206647 6.8274193853139877 5.4667737782001513 7.8069482147693634
leaf_count=26 26 32 31 39 30 28 26 20 20 20 31 20 24 27 23 20 32 25 37
internal_value=0.000373395 0.0371283 0.0551814 0.0416244 -0.0777714 0.00107357 0.024087 0.0827321 0.0385678 0.130645 -0.00769759 0.101121 -0.0111876 0.0337306 0.178568 -0.0972418 -0.116287 -0.117149 -0.115485
internal_weight=123.556 84.0321 74.0793 65.9879 39.524 33.219 27.123 32.7689 17.0515 15.7174 14.0187 9.67172 20.7381 12.0377 10.9387 9.9528 25.5053 12.2942 13.2111
internal_count=537 356 310 278 181 144 116 134 71 63 61 40 90 51 43 46 120 57 63
is_linear=0
shrinkage=0.1


Tree=9
num_leaves=23
num_cat=0
split_feature=7 18 3 6 0 18 17 14 5 3 3 11 2 7 8 18 5 7 18 2 0 12
split_gain=31.9025 20.1776 11.2466 5.08864 6.06895 4.43761 6.32927 9.33124 1.77924 0.611082 1.5906 0.434115 0.316407 8.69804e-05 3.90245e-05 1.34111e-05 1.73441e-05 1.29409e-05 7.83955e-06 7.45605e-06 3.84475e-06 1.32051e-06
threshold=0.04584690171315766 -0.044025508553007311 -0.10176834797721507 -0.42767210370272357 -0.050263451974483384 -0.044033799460817959 -0.065485873853789747 -0.043896628612980729 0.019955050313973554 -0.061995160448379001 -0.046839282715876153 -0.50017016083604726 -0.083426110489866631 0.045828338327261207 -0.046259913429791376 -0.044074378464862847 -0.01177921282422619 0.045775977835072888 -0.044067431290787037 -0.079963065668228597 -0.062184210877863313 0.064886861081111122
decision_type=2 2 2 2 2 2 2 2 2 2 2 2 2 2 2 2 2 2 2 2 2 2
left_child=5 3 -3 12 -5 8 11 -8 9 13 -11 -7 -2 15 -13 16 -1 -17 -19 -12 -20 -18
right_child=1 2 -4 4 -6 6 7 -9 -10 10 19 14 -14 -15 -16 17 21 18 20 -21 -22 -23
leaf_value=-0.094957371614125152 -0.095266775085456473 0.12844453774970452 0.40170232497037645 -0.017104305049107423 0.2080134231024888 -0.032843809334440768 0.18399540190425984 -0.096335087237639963 0.019317056630268122 0.024462948394076645 -0.095192601068794347 -0.094776814697600339 -0.035541326069851796 -0.0954195271534371 -0.09543054439650428 -0.094673720118070209 -0.094646966775890976 -0.095176160795291204 -0.095020921093256383 -0.094893387282499395 -0.094832879902422118 -0.094526407751178487
leaf_weight=2.0658395141363144 1.8806111216545107 3.0461104288697243 2.9793460071086875 2.5007075369358054 2.2980538979172707 1.6140905469655988 3.2070403397083282 1.8855146244168297 1.7417526468634594 1.6728105768561361 1.6912739574909208 1.9411122202873228 1.6788526996970166 3.2051091268658629 1.7242987751960757 1.5994382351636875 2.1532080471515687 1.6932129263877893 2.0797963887453097 1.640729285776618 2.2786010578274682 1.5717208236455915
leaf_count=25 22 24 23 25 24 20 33 20 20 20 20 24 20 37 20 20 27 20 25 20 28 20
internal_value=-0.000651688 0.124064 0.26356 0.0235008 0.0907012 -0.0537788 0.000665574 0.0802033 -0.0779179 -0.0857399 -0.0551008 -0.0760557 -0.0670967 -0.0949514 -0.0950843 -0.0948398 -0.094725 -0.0949267 -0.0949936 -0.0950453 -0.0949226 -0.0945961
internal_weight=48.1492 14.3837 6.02546 8.35823 4.79876 33.7655 10.3721 5.09255 23.3935 21.6517 5.00481 5.2795 3.55946 16.6469 3.66541 13.4418 5.79077 7.65105 6.05161 3.332 4.3584 3.72493
internal_count=537 138 47 91 49 399 117 53 282 262 60 64 42 202 44 165 72 93 73 40 53 47
is_linear=0
shrinkage=0.1


Tree=10
num_leaves=22
num_cat=0
split_feature=7 3 1 8 12 11 18 18 1 7 19 7 19 16 8 16 3 15 10 15 2
split_gain=15.3281 31.6371 1.67408 4.01548 0.00034129 6.86287e-07 1.12314e-08 1.22928e-08 9.18308e-09 7.31782e-09 5.34416e-09 4.86331e-09 4.76077e-09 4.50114e-09 5.12379e-09 4.38416e-09 3.70151e-09 2.46496e-09 2.03805e-09 1.19506e-09 9.09076e-10
threshold=0.045869640594963956 -0.08562613654029437 0.022726256941597248 -0.046256276372183686 0.15853292279013534 -1.1212633559567029 -0.044023475945832287 -0.044074968813710702 -0.1779914303145039 0.045845932186372333 -0.079072088883334224 0.045816427211067462 -0.12020644750196255 -0.097074681996184423 -0.046267651504296993 -0.10284572924364056 -0.11418113581977159 -0.045379170715707622 -0.061215418008439555 -0.045428650420280804 -0.089362992351537912
decision_type=2 2 2 2 2 2 2 2 2 2 2 2 2 2 2 2 2 2 2 2 2
left_child=2 -2 4 -4 5 -1 7 12 -9 11 13 -8 16 15 -15 17 -7 -10 -16 -17 -20
right_child=1 -3 3 -5 -6 6 9 8 10 -11 -12 -13 -14 14 18 19 -18 -19 20 -21 -22
leaf_value=-0.088276477152569227 -0.088191195547283718 1.5790180023217131 -0.088812690083085899 0.50328793146018735 -0.090673697436303102 -0.08807060376400444 -0.088080524335776594 -0.088083339176068143 -0.088114591208911255 -0.088067091399363695 -0.088090638816014519 -0.088101038174362989 -0.088100774828895889 -0.088114797559242036 -0.08808758884729273 -0.088128068653779076 -0.088089527510277543 -0.088097016870406192 -0.088107125854094068 -0.088116547842514104 -0.088096421946346731
leaf_weight=0.22873274795711074 0.31011376203969121 0.17981620458886016 0.35582973761484027 0.16890602186322201 0.61701504141092289 0.16915556974709034 0.21670850506052364 0.18764509400352936 0.16607735585421324 0.16767412889748812 0.18251238670199921 0.24762233393266797 0.20106435986235838 0.25305523164570398 0.15129696484655208 0.17778917402029037 0.26575057627633214 0.15364252077415586 0.15630405815318293 0.18242087028920717 0.16114667383953729
leaf_count=25 37 14 32 17 16 23 29 25 21 23 24 32 26 32 20 22 35 20 20 23 21
internal_value=-0.00692848 0.523715 -0.0658758 0.101777 -0.0885166 -0.0881094 -0.0880969 -0.0881 -0.0881043 -0.088085 -0.0881067 -0.0880915 -0.0880881 -0.0881088 -0.0881033 -0.0881147 -0.0880822 -0.0881061 -0.0880971 -0.0881222 -0.0881017
internal_weight=4.90028 0.48993 4.41035 0.524736 3.88561 3.2686 3.03987 2.40786 1.77189 0.632005 1.58425 0.464331 0.635971 1.40173 0.721803 0.67993 0.434906 0.31972 0.468748 0.36021 0.317451
internal_count=537 51 486 49 437 421 396 312 228 84 203 61 84 179 93 86 58 41 61 45 41
is_linear=0
shrinkage=0.1


Tree=11
num_leaves=20
num_cat=0
split_feature=18 7 7 5 1 13 6 19 18 17 11 12 16 17 8 0 7 13 18
split_gain=75.0202 26.6951 9.71177 9.66865 6.64913 6.56305 5.40429 5.28423 4.99701 4.56704 2.38538 3.151 1.33835 0.802207 1.38094 0.000787636 0.000724661 0.000813898 0.000417348
threshold=-0.044067097181254129 0.045793359178878792 0.045824310038983865 -0.011927087384550113 -0.06483701659928616 0.1068746713597372 -1.3335227713680118 -0.067955156198168887 -0.044074378464862847 -0.066738161547148303 0.37829832028191129 0.059973167176566623 -0.093016846024060532 -0.062410600988190269 -0.046249041263523603 -0.050590812558615438 0.045847412901634077 -0.13324690596063513 -0.044018294513849206
decision_type=2 2 2 2 2 2 2 2 2 2 2 2 2 2 2 2 2 2 2
left_child=2 9 3 4 -1 -4 -3 10 12 -2 13 -12 -5 15 -15 16 17 -8 -19
right_child=1 6 5 8 -6 -7 7 -9 -10 -11 11 -13 -14 14 -16 -17 -18 18 -20
leaf_value=0.013899615673249658 0.023870191947746654 0.011160463476512138 0.12170193342430811 0.24417278138659562 0.16029810884846135 -0.025647206042923251 -0.11677798847792741 0.0043952024825493641 0.096942183378988078 0.1596433557699366 -0.096830735367844076 0.0057827031019181572 0.18122659923607487 -0.05264154429304925 -0.11767704634233998 -0.11861293044746067 -0.11639542304207917 -0.11859663355921615 -0.11733428503318909
leaf_weight=8.5312302112579328 4.7319524735212326 5.9033849984407416 4.8350037783384314 6.3050679564475987 4.8752133101224855 8.0649531334638578 8.146732419729231 5.5426775664091101 5.4287747144699159 5.1999355107545835 8.3743669092655164 4.6565234065055838 7.2753977179527292 6.000205785036087 7.1620702147483879 4.6370163559913626 7.8831897974014273 6.6272890567779523 4.3303195387125051
leaf_count=35 20 25 20 24 20 34 38 24 23 21 37 20 28 27 33 21 37 30 20
internal_value=0.000350496 -0.0583657 0.102966 0.13217 0.067137 0.0295804 -0.0803508 -0.088877 0.178034 0.0949555 -0.0978186 -0.0601623 0.210451 -0.108775 -0.0880297 -0.117409 -0.117202 -0.117535 -0.118098
internal_weight=124.511 79.1957 45.3156 32.4157 13.4064 12.9 69.2638 63.3604 19.0092 9.93189 57.8177 13.0309 13.5805 44.7868 13.1623 31.6245 26.9875 19.1043 10.9576
internal_count=537 353 184 130 55 54 312 287 75 41 263 57 52 206 60 146 125 88 50
is_linear=0
shrinkage=0.1


Tree=12
num_leaves=22
num_cat=0
split_feature=6 0 8 0 1 13 16 15 11 0 9 11 11 15 2 13 1 16 2 3 18
split_gain=18.2771 9.22472 8.86567 7.6776 8.30272 6.02623 5.89271 3.92245 3.81284 3.56764 2.31423 1.35607 1.58504 0.000575516 0.000290587 8.77653e-05 5.01981e-05 2.76166e-05 2.42611e-05 1.24427e-05 5.576e-06
threshold=0.81788209210897211 -0.066883495103501459 -0.04624043609469717 -0.054322494223106865 -0.047234002899191101 0.24094593611061557 -0.10105036558866877 -0.045375333622763331 0.36352801193709344 -0.049959721623765573 -0.061139650033062397 1.2426690497772668 -1.1212633559567029 -0.045432391192397052 -0.0069136722799657468 0.21068383051968306 -0.13932005090338859 -0.096988518172397606 -0.10477257713227255 -0.072893802167855612 -0.044039291250260827
decision_type=2 2 2 2 2 2 2 2 2 2 2 2 2 2 2 2 2 2 2 2 2
left_child=6 -2 3 5 -5 8 7 9 13 -1 -9 12 -8 -3 15 17 -15 -14 -19 20 -20
right_child=1 2 -4 4 -6 -7 11 10 -10 -11 -12 -13 14 16 -16 -17 -18 18 19 -21 -22
leaf_value=0.1726945991094414 0.20956057412200907 -0.099530655238866533 0.18441799376125947 0.20564475450171163 -0.026300639320230187 0.082240251797571551 -0.0084673553652883631 -0.098664609574562828 0.032626767286151798 -0.0071503896936562644 0.033181918456335689 -0.0039319330159448959 -0.097653305704383367 -0.097454968062533315 -0.098562801301383646 -0.098046970852580975 -0.098068308892601333 -0.09753649492169067 -0.097218614741531442 -0.097395587975521364 -0.096992374278153229
leaf_weight=2.2142339572310448 3.5462397038936642 2.8361764773726508 3.5115511864423707 3.5826657935976982 2.711186662316325 3.8472541719675055 2.2399985864758518 3.1880344599485397 3.0504707917571059 2.1979188174009323 2.2857946157455427 2.1319828182458869 2.977799870073798 2.6145937293767973 3.0681961402297011 2.4072485715150824 2.7252715453505481 3.0557418912649181 2.0548268556594875 2.0838952288031543 2.3186327591538429
leaf_count=20 28 24 28 27 22 32 21 28 27 20 21 20 28 25 27 22 25 29 20 20 23
internal_value=0.000222554 0.0586717 0.0371642 0.0129646 0.10573 -0.0257685 -0.0513361 0.0129447 -0.0627824 0.0831046 -0.0436073 -0.079784 -0.0877872 -0.0983794 -0.0976766 -0.0974941 -0.097768 -0.0973875 -0.0973043 -0.0971945 -0.0970987
internal_weight=60.6497 28.4254 24.8792 21.3676 6.29385 15.0738 32.2243 9.88598 11.2265 4.41215 5.47383 22.3383 20.2063 8.17604 17.9663 14.8981 5.33987 12.4909 9.5131 6.45735 4.37346
internal_count=537 238 210 182 49 133 299 89 101 40 49 210 190 74 169 142 50 120 92 63 43
is_linear=0
shrinkage=0.1


Tree=13
num_leaves=21
num_cat=0
split_feature=6 18 3 2 13 5 11 5 12 7 18 9 9 13 18 10 17 4 7 13
split_gain=28.1889 14.8422 8.51899 8.56612 10.9523 8.93716 6.851 5.45526 9.59379 3.41916 3.39213 3.27299 2.65241 1.56841 0.329345 0.209995 8.96416e-05 9.15716e-05 6.24449e-05 2.79651e-05
threshold=0.81788209210897211 -0.044072091238249067 -0.075272880549027019 -0.12426307561266012 -0.13698712636075258 0.011022775867237789 -0.37425852425853662 0.00063384977305074041 0.065872862259487172 0.045856654469775361 -0.044058420003215852 -0.061144053186109201 -0.061142013913021702 0.17514295968477761 -0.044091920735843428 -0.061216565722885453 -0.062280837571395888 0.0066603377010741515 0.045868527192790727 -0.047850671220759457
decision_type=2 2 2 2 2 2 2 2 2 2 2 2 2 2 2 2 2 2 2 2
left_child=7 15 3 5 -5 -3 -6 14 9 10 -9 -8 -12 -4 -1 -2 -16 19 -11 -18
right_child=1 2 13 4 6 -7 11 8 -10 18 12 -13 -14 -15 16 -17 17 -19 -20 -21
leaf_value=-0.063318292873889279 -0.10140015851104467 -0.060442553666339632 0.034500545136168626 0.29223447243384099 0.19429913323932049 0.14418625715466979 0.11730320464835864 -0.080459555097750712 0.11600068223611673 -0.10093566689242631 0.10276300885711825 -0.021858079392849644 -0.032816488456852262 -0.069130836748341112 -0.10167949943936833 -0.063025562393173237 -0.10120987214547342 -0.1016048006634462 -0.10150497529192513 -0.10082496998665452
leaf_weight=2.6507041603326824 3.1066521257162094 4.5583552271127719 2.9085678011178997 4.4716632366180482 5.3001475036144301 4.0136635601520538 3.1493365615606352 4.4634589999914196 4.0602750182151786 3.0289158895611745 2.9140440523624447 3.6475051641464091 2.8583109229803085 2.9332130700349808 5.0657239705324217 2.6359461322426787 3.2089962661266362 3.409733958542347 5.294196218252182 4.584153190255158
leaf_count=20 23 30 20 24 31 26 20 31 25 23 20 24 20 20 37 20 24 25 39 35
internal_value=5.08076e-05 0.0638776 0.091247 0.116524 0.158509 0.0353705 0.109078 -0.0563798 -0.0232365 -0.0536984 -0.0149936 0.0426227 0.0356278 -0.0175337 -0.0960047 -0.0837856 -0.10133 -0.101173 -0.101298 -0.100983
internal_weight=78.2636 36.7251 30.9825 25.1407 16.5687 8.57202 12.097 41.5385 22.6192 18.5589 10.2358 6.79684 5.77235 5.84178 18.9193 5.7426 16.2686 11.2029 8.32311 7.79315
internal_count=537 238 195 155 99 56 75 299 158 133 71 44 40 40 141 43 121 84 62 59
is_linear=0
shrinkage=0.1


Tree=14
num_leaves=23
num_cat=0
split_feature=4 8 2 13 9 17 17 15 14 2 16 18 16 7 14 16 14 2 8 17 8 11
split_gain=35.8722 15.1071 8.82217 8.82319 8.28434 7.41623 7.85386 2.30273 0.410668 0.00015291 4.45512e-05 1.44848e-05 1.06914e-05 5.19911e-06 1.29694e-05 3.67517e-06 2.97447e-06 2.82994e-06 2.26508e-06 2.53551e-06 2.10228e-06 1.03816e-06
threshold=0.006874048023686399 -0.046354457298375833 -0.12661152944753304 -0.27107783478704917 -0.061145354926944971 -0.064996690229515444 -0.057846305237294067 -0.045462646594198665 -0.043951700507190015 0.083108197608801684 -0.079533977788294644 -0.044023475945832287 -0.097074681996184423 0.045845932186372333 -0.043859211576305068 -0.10284572924364056 -0.043959819401754488 -0.11447422424188695 -0.046254086956685321 -0.063398848538694444 -0.046263102975488933 -0.064349730767884986
decision_type=2 2 2 2 2 2 2 2 2 2 2 2 2 2 2 2 2 2 2 2 2 2
left_child=1 -1 -3 -4 -2 -5 8 -6 -7 10 11 12 15 20 -15 21 -14 -17 -18 -20 -13 -9
right_child=4 2 3 5 7 6 -8 9 -10 -11 -12 13 16 14 -16 17 18 -19 19 -21 -22 -23
leaf_value=0.34895055894217347 0.14441396183404517 -0.094809920204830742 0.28966561826100945 0.22513670968252153 0.02995053008814651 -0.096522248470387428 0.18130765378887498 -0.093680960006284689 -0.030524860292636083 -0.094749405234879902 -0.094260705942270817 -0.093549356151618551 -0.093518079662216536 -0.093221677354634158 -0.093634162108799032 -0.093782947250963686 -0.093755436911334505 -0.093962728953588412 -0.093544367427737529 -0.093720387795018567 -0.093709111028029285 -0.093801952196785901
leaf_weight=2.46082679927349 1.6706507056951512 2.391510382294654 2.3275737389922124 2.1837633773684484 1.6092138141393686 2.3846678435802442 1.8072334378957782 1.4066641330718996 1.5593811199069025 1.5297165736556042 1.3968889191746736 1.4496423453092577 1.3746398761868563 1.3139629252254965 1.8154588416218755 1.4263978376984598 2.416553415358075 2.2672689631581395 1.7251618877053347 1.5568754971027114 1.9077617004513729 1.4301955327391622
leaf_count=23 21 30 24 26 21 26 22 20 20 19 19 21 20 20 26 20 34 31 25 22 27 20
internal_value=-0.000517843 0.122245 0.0781576 0.118464 -0.071079 0.0682463 0.00867491 -0.085698 -0.0704285 -0.0937834 -0.0937146 -0.0936767 -0.0937353 -0.0935537 -0.093461 -0.0938276 -0.0936501 -0.0938933 -0.093682 -0.0936279 -0.0936401 -0.093742
internal_weight=41.412 15.115 12.6541 10.2626 26.2971 7.93505 5.75128 24.6264 3.94405 23.0172 21.4875 20.0906 13.6038 6.48683 3.12942 6.53053 7.07323 3.69367 5.69859 3.28204 3.3574 2.83686
internal_count=537 171 148 118 366 94 68 345 46 324 305 286 192 94 46 91 101 51 81 47 48 40
is_linear=0
shrinkage=0.1


Tree=15
num_leaves=22
num_cat=0
split_feature=0 12 18 18 1 18 16 5 4 4 3 1 16 15 1 1 0 3 17 16 6
split_gain=14.1787 4.09845e-05 1.6467e-10 2.47053e-10 1.63526e-10 1.04449e-10 8.63984e-11 8.29738e-11 9.52093e-11 8.28008e-11 6.24132e-11 6.17831e-11 4.99568e-11 6.04423e-11 4.81548e-11 3.73048e-11 3.07257e-11 2.93394e-11 2.77451e-11 2.68729e-11 1.32821e-11
threshold=-0.067376367063708795 -0.095181011892754755 -0.044023475945832287 -0.044074968813710702 -0.16111133760824467 -0.044065205816780771 -0.097074681996184423 -0.01989058735942428 0.012847047030933617 0.0084963940566544858 -0.14537238346445955 -0.11160768976943318 -0.091669240638804619 -0.045347834169095762 -0.066327340198438292 -0.18060163056985321 -0.057928722434308251 -0.11760838546262585 -0.061349971614654573 -0.10370645971971582 -0.2329487757795739
decision_type=2 2 2 2 2 2 2 2 2 2 2 2 2 2 2 2 2 2 2 2 2
left_child=-1 -2 3 7 15 18 9 -3 17 -7 -4 19 13 -8 -13 -5 -11 -9 -6 -12 -14
right_child=1 2 10 4 5 6 12 8 -10 16 11 14 20 -15 -16 -17 -18 -19 -20 -21 -22
leaf_value=1.4029476076102243 -0.088907691250742271 -0.087649825548444943 -0.087642309053406267 -0.087644280893767579 -0.087655692099828639 -0.087648309679245973 -0.087644655435706459 -0.087641449433516719 -0.087648574222129738 -0.087652109688752214 -0.087646899019724597 -0.087642895240424804 -0.087649170656956057 -0.087649978834395958 -0.087647375862377697 -0.087648220770016771 -0.087655539337184729 -0.087644786849648604 -0.087652249194444004 -0.08765058314337143 -0.087651717367712878
leaf_weight=0.067070324905216805 0.35549323633313168 0.050660167005844414 0.038766924059018493 0.039373216452077031 0.050617774482816458 0.042417467571794876 0.04704800946637977 0.042343197739683092 0.056034251232631505 0.063281205482780933 0.03819339582696557 0.050152580486610532 0.038766143145039678 0.039016037131659687 0.045974205248057842 0.06168145069386799 0.044484488782472908 0.06969971302896727 0.043540229788049944 0.041110457386821508 0.043412112630904165
leaf_count=26 20 26 21 21 25 22 25 23 29 32 20 27 20 20 24 32 22 37 22 21 22
internal_value=-0.0149551 -0.0879922 -0.0876484 -0.0876491 -0.0876503 -0.0876512 -0.0876503 -0.0876463 -0.0876452 -0.0876521 -0.0876459 -0.0876467 -0.0876488 -0.0876471 -0.087645 -0.0876467 -0.0876535 -0.0876435 -0.0876541 -0.0876488 -0.0876505
internal_weight=1.36914 1.30207 0.946573 0.732375 0.513638 0.412583 0.318425 0.218737 0.168077 0.150183 0.214198 0.175431 0.168242 0.086064 0.0961268 0.101055 0.107766 0.112043 0.094158 0.0793039 0.0821783
internal_count=537 511 491 378 263 210 163 115 89 76 113 92 87 45 51 53 54 60 47 41 42
is_linear=0
shrinkage=0.1


Tree=16
num_leaves=20
num_cat=0
split_feature=18 8 7 16 1 15 15 6 5 13 8 14 12 2 11 18 5 14 3
split_gain=28.5604 16.1862 9.59734 9.17665 7.2068 8.57194 8.71879 7.20073 7.18359 7.16168 7.54655 6.32538 5.20113 4.36885 0.564268 0.00198795 0.00203738 0.000305202 0.000207388
threshold=-0.044067431290787037 -0.046283693308669695 0.04582020835421239 -0.10492379298981634 -0.17754568908249538 -0.045309016243920759 -0.04540041069178314 0.21124686373350771 0.0096708872889146712 0.17435646526996287 -0.046251340293308026 -0.043950102544529294 0.061678637742236149 -0.10082318621735506 -0.1985696347832259 -0.044074968813710702 -0.01177921282422619 -0.043974623365327065 -0.11461209332505698
decision_type=2 2 2 2 2 2 2 2 2 2 2 2 2 2 2 2 2 2 2
left_child=2 14 15 12 -5 6 8 -8 -6 10 -7 -4 -3 -10 -2 16 17 -1 -18
right_child=1 3 11 4 5 9 7 -9 13 -11 -12 -13 -14 -15 -16 -17 18 -19 -20
leaf_value=-0.11179255243327509 -0.063869394688788758 0.033627668728343683 -0.060150660351294183 0.16182909348529978 -0.015084555014655063 0.13483862891195195 0.03072327447866945 -0.11808619681232513 0.059927497394205692 0.17354217251278869 -0.034721875645514731 0.078371837395087754 -0.080564152331094291 0.17876596635141112 -0.11365055775376927 -0.11346267007144406 -0.10965232404810654 -0.11296694786995209 -0.1106374398911977
leaf_weight=4.4655099660158157 4.0228628516197205 8.6422180682420748 8.5686541050672513 6.9514885544776908 7.304592713713645 5.3042914420366287 6.7349067479372042 6.2874103039503098 7.4444923251867259 8.7200581282377225 5.1960985362529772 5.3575530350208274 7.4074463695287696 5.2929992973804492 5.246499761939047 5.6285050809383419 3.6795110404491433 4.3867386132478732 5.0977532416582081
leaf_count=23 20 36 39 26 31 22 27 29 31 34 21 22 33 20 26 28 20 22 27
internal_value=0.000525025 0.032645 -0.0725144 0.0479971 0.06617 0.0534517 0.0225806 -0.0411246 0.063973 0.106559 0.0509319 -0.00685965 -0.0190756 0.10931 -0.0920458 -0.111826 -0.111304 -0.112375 -0.110224
internal_weight=121.74 84.5554 37.1842 75.286 59.2363 52.2848 33.0644 13.0223 20.0421 19.2204 10.5004 13.9262 16.0497 12.7375 9.26936 23.258 17.6295 8.85225 8.77726
internal_count=537 356 181 310 241 215 138 56 82 77 43 61 69 51 46 120 92 45 47
is_linear=0
shrinkage=0.1


Tree=17
num_leaves=21
num_cat=0
split_feature=7 0 18 6 18 14 19 10 5 3 18 17 7 18 5 7 3 14 17 3
split_gain=24.5332 12.4179 12.459 4.90568 4.13666 5.45698 10.4924 3.04777 1.81193 0.609812 1.72335 0.0001221 9.59913e-05 4.4233e-05 4.03608e-05 2.6236e-05 2.22298e-05 1.67977e-05 9.11368e-06 2.06478e-06
threshold=0.04584690171315766 -0.060985061778799497 -0.044025508553007311 -0.42767210370272357 -0.044033799460817959 -0.043896628612980729 -0.1059052846099145 -0.061222714233643248 0.022159069912888772 -0.061995160448379001 -0.044079119057978192 -0.065249530528666319 0.045828338327261207 -0.044074378464862847 -0.01177921282422619 0.045775977835072888 -0.038263210267403445 -0.043962814499561902 -0.062280837571395888 -0.11760838546262585
decision_type=2 2 2 2 2 2 2 2 2 2 2 2 2 2 2 2 2 2 2 2
left_child=4 -2 3 -3 8 6 -6 -8 9 12 -11 -7 13 14 -1 -15 -12 -17 -19 -16
right_child=1 2 -4 -5 5 11 7 -9 -10 10 16 -13 -14 15 19 17 -18 18 -20 -21
leaf_value=-0.094214547071887297 -0.068790419813065148 -0.055278165911874746 0.25460113972607046 0.12159352226075347 0.2436222862724535 -0.094292609717276238 0.072174607600639623 -0.096337647666334777 0.024100765205909688 0.032640417590144737 -0.094980270889609059 -0.095435432335901751 -0.094703302091152256 -0.093850837269701046 -0.093545122855963281 -0.094097928196514136 -0.094459483946993675 -0.094603079510793955 -0.094282001410087801 -0.093704799700582431
leaf_weight=1.8882372975349424 3.3801681995391837 2.5413549393415442 5.7887588590383521 4.0948281809687614 2.0511957854032516 2.0503103509545331 1.7801054343581197 2.7030947953462601 1.6704506948590268 1.5717185139656065 1.6498512029647825 1.7184463292360321 2.9547947794198999 1.4392274245619763 1.449101850390434 2.0040837749838851 1.6287785321474086 1.9779019281268144 1.5985099524259521 1.8356926292181044
leaf_count=25 33 32 35 38 20 27 20 30 19 20 20 20 37 20 21 27 21 25 21 26
internal_value=-0.000765915 0.101152 0.147385 0.0538597 -0.0511492 0.00101482 0.0562846 -0.0294279 -0.0759529 -0.0843105 -0.0534509 -0.0948137 -0.0941919 -0.094068 -0.0938461 -0.0942315 -0.0947216 -0.0943297 -0.0944596 -0.0936344
internal_weight=47.7766 15.8051 12.4249 6.63618 31.9715 10.3032 6.5344 4.4832 21.6683 19.9979 4.85035 3.76876 15.1475 12.1928 5.17303 7.01972 3.27863 5.5805 3.57641 3.28479
internal_count=537 138 105 70 399 117 70 50 282 263 61 47 202 165 72 93 41 73 46 47
is_linear=0
shrinkage=0.1


Tree=18
num_leaves=20
num_cat=0
split_feature=0 14 12 7 16 1 11 1 15 18 0 19 7 13 17 18 2 0 7
split_gain=7.31787 10.6962 0.000176724 6.98052e-05 2.19981e-05 1.00766e-06 5.08411e-08 2.93873e-08 2.0987e-08 1.86557e-08 1.41061e-08 1.31042e-08 1.35363e-08 1.34154e-08 8.38338e-09 7.48448e-09 4.86012e-09 4.58494e-09 3.70273e-09
threshold=-0.046212800266519645 -0.043932356873954394 0.15853292279013534 0.045876566572411667 -0.094813226122527558 0.017466795033055187 -1.0988960497376508 -0.18389970427483612 -0.045371949243185765 -0.044087856593508133 -0.05256289817743541 -0.072371456152435037 0.045852409862714764 -0.24922334376855437 -0.060587206732299205 -0.044044840249102928 -0.11895575964903614 -0.060489279022023647 0.045823594847242015
decision_type=2 2 2 2 2 2 2 2 2 2 2 2 2 2 2 2 2 2 2
left_child=2 4 3 5 -2 6 -1 -8 9 -9 15 12 13 -11 16 -10 -15 -17 -18
right_child=1 -3 -4 -5 -6 -7 7 8 10 11 -12 -13 -14 14 -16 17 18 -19 -20
leaf_value=-0.088101910347525958 -0.088198843360644388 0.44437208229790803 -0.090302204267284067 -0.089447252956750323 -0.08931322125517567 -0.088333487264824873 -0.088003477124718191 -0.088019328980328312 -0.088040329308167853 -0.088036698020780568 -0.088054330190430199 -0.088032169554936257 -0.088031325893639711 -0.088064467096757679 -0.088050651678982517 -0.088030445907975027 -0.088091831861286732 -0.088008078173750962 -0.088072652908865776
leaf_weight=0.15570143330842379 0.27891566185280681 0.74046607222408034 0.47930458933114994 0.41752537339925755 0.48546111909672618 0.12830039532855142 0.17486219713464501 0.14708060072735119 0.20850497111678123 0.14496165467426303 0.22803499875590016 0.18506738590076399 0.13677549781277787 0.27584295254200819 0.1842532227747129 0.15029076114296913 0.19028494926169515 0.23483166005462408 0.21373037062585354
leaf_count=21 34 33 14 31 36 13 27 22 30 21 32 27 20 38 26 22 25 36 29
internal_value=-0.0121041 0.173496 -0.0885123 -0.0882422 -0.0889066 -0.0880598 -0.0880465 -0.088043 -0.088046 -0.0880531 -0.0880332 -0.0880569 -0.0880608 -0.0880648 -0.0880696 -0.0880251 -0.0880747 -0.0880168 -0.0880817
internal_weight=5.1602 1.50484 3.65535 3.17605 0.764377 2.75852 2.63022 2.47452 2.29966 1.478 0.821662 1.33092 1.14585 1.00907 0.864111 0.593627 0.679858 0.385122 0.404015
internal_count=537 103 434 420 70 389 376 355 328 208 120 186 159 139 118 88 92 58 54
is_linear=0
shrinkage=0.1


Tree=19
num_leaves=20
num_cat=0
split_feature=18 8 7 10 19 18 6 19 3 11 10 11 11 17 2 7 13 14 4
split_gain=56.9624 19.2603 9.15858 7.92047 7.07937 5.6217 5.35924 5.61706 4.61305 2.35728 1.59862 1.52279 2.36779 0.797155 1.35399 0.00163617 0.00312633 0.00190142 0.000686777
threshold=-0.044066595262268513 -0.046283256863095527 0.045824310038983865 -0.061215418008439555 -0.11534900965542629 -0.044078643673480376 -1.3200870526457298 -0.067955156198168887 -0.089894358398547661 0.3400973587887951 -0.061193384879464102 0.37829832028191129 0.54776453125964586 -0.062410600988190269 -0.089362992351537912 0.045843965424687154 -0.13324690596063513 -0.043938474613342104 0.031188408879801208
decision_type=2 2 2 2 2 2 2 2 2 2 2 2 2 2 2 2 2 2 2
left_child=2 8 3 4 -1 -4 -3 11 -2 -5 -11 13 -13 15 -15 16 -8 -18 -17
right_child=1 6 5 9 -6 -7 7 -9 -10 10 -12 12 -14 14 -16 18 17 -19 -20
leaf_value=-0.022718040980083808 -0.00030311738423237746 0.016462694010919331 0.091222377525589954 0.11487311932078653 0.11605313653067216 -0.037479502079924641 -0.11216947116290395 0.013434275103342894 0.12829890288001336 0.14523441544118684 0.22170626697531334 -0.0064234939814836987 -0.10208197870441998 -0.11514404771618512 -0.049369300264087514 -0.11133006478655168 -0.11646995121486542 -0.11380325766974893 -0.11300745920383917
leaf_weight=6.3359549641609183 5.3949875831604004 5.6659666895866385 5.8223822712898246 8.5232541561126762 8.757144600152964 8.1369413584470731 7.6126873195171312 5.2163994908332816 5.7750760763883573 5.2567287087440455 5.6954302787780779 4.4866263419389707 6.1134185045957565 6.4038344323635101 6.1212067902088219 4.9875891208648664 4.2228280603885606 7.2892124056816163 4.7803013175725937
leaf_count=25 22 24 23 32 34 35 39 23 23 20 21 21 28 31 30 26 20 36 24
internal_value=0.000352577 -0.0548204 0.0845655 0.112172 0.0577982 0.0162016 -0.0763092 -0.0854933 0.0661859 0.154311 0.185002 -0.0954139 -0.0615931 -0.10407 -0.0829988 -0.113204 -0.113742 -0.114781 -0.112151
internal_weight=122.598 74.0701 48.5278 34.5685 15.0931 13.9593 62.9001 57.2341 11.1701 19.4754 10.9522 52.0177 10.6 41.4177 12.525 28.8926 19.1247 11.512 9.76789
internal_count=537 347 190 132 59 58 302 278 45 73 41 255 49 206 61 145 95 56 50
is_linear=0
shrinkage=0.1


Tree=20
num_leaves=20
num_cat=0
split_feature=6 17 13 1 7 16 16 17 3 1 13 2 15 3 11 18 12 1 9
split_gain=15.0249 7.82155 8.56773 10.4577 7.53485 5.37816 4.75124 3.26121 7.05755 2.99033 1.42405 1.45442 0.00225499 0.000270805 0.000120968 5.61543e-05 3.70329e-05 3.1397e-05 2.56845e-05
threshold=0.81788209210897211 -0.061133495694525739 0.24094593611061557 -0.12212762548029416 0.045808345677317723 -0.10105036558866877 -0.10549432149009599 -0.061476307295822562 -0.097391018075661043 -0.11949938269179815 0.23310768864456685 0.010831613155306471 -0.045439372421338088 -0.091895133951347158 1.0496744616982172 -0.044052028454652857 0.059123903666395784 -0.098035339686713602 -0.061141039858345257
decision_type=2 2 2 2 2 2 2 2 2 2 2 2 2 2 2 2 2 2 2
left_child=5 2 4 -4 -2 7 -6 -1 -9 12 11 14 -8 -14 15 16 17 -7 -17
right_child=1 -3 3 -5 6 10 9 8 -10 -11 -12 -13 13 -15 -16 18 -18 -19 -20
leaf_value=-0.052787239179038783 0.10764922459004334 0.2075127053739835 0.22934959494866539 -0.0084062665541961307 0.081337515067913604 -0.096507931568117877 -0.10104689988684362 -0.035277494379945346 0.19170159291077365 0.010687267493932361 0.0033685981595023362 -0.012264272432596422 -0.096920069726690206 -0.098455757674183894 -0.097192717810526033 -0.096427976589884501 -0.096278234186193565 -0.096989996693565131 -0.096012441485915923
leaf_weight=4.3674572184681892 4.784669905900965 2.8970558345317832 4.2151026502251625 3.2971151471137992 2.7344499230384889 2.7996367067098697 3.4267820790410086 3.1779864132404327 2.4077406376600283 3.5903190597891657 1.9703983068466175 2.3407282084226599 2.3887184411287352 2.2112738341093028 2.3508980199694625 2.5869383066892624 2.5485137403011322 2.6111909747123718 3.5000180229544648
leaf_count=39 38 20 30 28 22 29 27 29 21 29 18 22 24 20 23 27 27 26 38
internal_value=0.000574474 0.0514647 0.0345001 0.124998 -0.00102649 -0.0484634 -0.0372579 0.011947 0.0625624 -0.0651731 -0.0774989 -0.0860025 -0.099105 -0.0976583 -0.0965288 -0.0964177 -0.0965925 -0.0967406 -0.096189
internal_weight=60.207 29.5455 26.6484 7.51222 19.1362 30.6615 14.3515 9.95318 5.58573 11.6171 20.7083 18.7379 8.02677 4.59999 16.3972 14.0463 7.95934 5.41083 6.08696
internal_count=537 238 218 58 160 299 122 89 50 100 210 192 71 44 170 147 82 55 65
is_linear=0
shrinkage=0.1


Tree=21
num_leaves=21
num_cat=0
split_feature=6 18 3 2 9 5 16 16 5 5 15 16 2 15 2 7 12 17 15 8
split_gain=22.8938 11.2031 6.0538 6.31013 5.47621 8.01372 5.64162 6.06622 5.12196 8.23212 9.05166 1.68012 1.55901 0.344069 0.231608 0.00263636 0.00011548 0.00013083 2.84627e-05 2.57211e-05
threshold=0.81788209210897211 -0.044072091238249067 -0.075272880549027019 -0.13600024751793485 -0.061141518859889846 0.017105340966863652 -0.10492379298981634 -0.097074681996184423 0.00063384977305074041 0.0096362343213099218 -0.045386059858726104 -0.097221624681596452 -0.056223124347577619 -0.045165910894154976 -0.086723100284483795 0.045853315337420979 0.059123903666395784 -0.062249639981170161 -0.045405648177426254 -0.046272588800245394
decision_type=2 2 2 2 2 2 2 2 2 2 2 2 2 2 2 2 2 2 2 2
left_child=8 14 3 -3 5 6 -5 -8 13 10 -10 -4 15 16 -2 -11 17 -1 -18 -19
right_child=1 2 11 4 -6 -7 7 -9 9 12 -12 -13 -14 -15 -16 -17 18 19 -20 -21
leaf_value=-0.1005021638016669 -0.099832977266391593 -0.023317423007379698 -0.069084508336366979 0.28604651080839844 0.019018032687542576 0.038530100667709309 0.045522501626998085 0.20821458745378038 0.14493353114297611 -0.10331685336811608 -0.045677822660247058 0.038990425323020578 -0.024149081731070842 -0.059469097313535606 -0.057589436548656447 -0.099702430152245947 -0.09965416523156917 -0.099518468039114016 -0.099210468253408901 -0.099941843719671783
leaf_weight=3.0786751136183739 2.8348767682909966 3.7607896551489821 2.9305393397808075 3.7634693831205412 4.6393523663282421 5.4648761749267569 3.8929213732481038 5.5724946111440623 4.7948062419891357 3.4992063194513303 5.185820125043394 2.8251477107405654 3.8437732681632033 2.474380448460578 2.3938206806778899 4.7674526199698448 2.5613417103886604 3.3932039812207222 3.3195441886782637 2.4864444136619586
leaf_count=24 23 26 20 20 26 32 23 28 31 24 36 20 28 20 20 39 21 28 28 20
internal_value=0.000167626 0.0554632 0.0771035 0.0968897 0.116264 0.140399 0.182481 0.141303 -0.0532667 -0.0213492 0.045894 -0.0160365 -0.0767666 -0.0939915 -0.0804929 -0.101232 -0.099748 -0.099974 -0.0994037 -0.0996975
internal_weight=77.4829 38.0783 32.8496 27.0939 23.3331 18.6938 13.2289 9.46542 39.4046 22.0911 9.98063 5.75569 12.1104 17.3136 5.2287 8.26666 14.8392 8.95832 5.88089 5.87965
internal_count=537 238 195 155 129 103 71 51 299 158 67 40 91 141 43 63 121 72 49 48
is_linear=0
shrinkage=0.1


Tree=22
num_leaves=22
num_cat=0
split_feature=5 11 15 18 0 2 15 15 16 9 8 7 14 18 10 15 16 6 18 12 17
split_gain=28.3433 11.6854 7.25739 6.4587 7.07977 5.25274 3.93713 2.13474 1.93028 0.000261127 8.32052e-05 2.33472e-05 1.50142e-05 1.18776e-05 1.04779e-05 8.25464e-06 8.75848e-06 6.83302e-06 4.23322e-06 3.90492e-06 2.96545e-06
threshold=-0.0024470725184453702 0.97456528188237945 -0.045394490207648526 -0.044065911478040211 -0.054149534085588161 0.1004992436617211 -0.04538099489622998 -0.045463449511630886 -0.10160856245760734 -0.061145204282060182 -0.046272588800245394 0.045843965424687154 -0.043964655962553008 -0.044025508553007311 -0.061214623375911083 -0.045278856490048362 -0.10057272099084325 -0.68916227029972543 -0.044050982247658112 0.05497173885494936 -0.06614535055735371
decision_type=2 2 2 2 2 2 2 2 2 2 2 2 2 2 2 2 2 2 2 2 2
left_child=1 3 -3 4 -1 7 -6 -2 -5 -9 -11 12 20 17 -15 16 -14 -13 -19 -18 -12
right_child=5 2 -4 8 6 -7 -8 9 -10 10 11 13 15 14 -16 -17 19 18 -20 -21 -22
leaf_value=0.21854926420645776 0.023539927724214323 0.088400676071344039 0.33387013164611634 0.026088837219849739 -0.057463202016786633 0.11224329053373557 0.13965783588735459 -0.094492985434571658 -0.094971331234204981 -0.093864435536128318 -0.093072745704374321 -0.093208511524487475 -0.093483731956076691 -0.092569153345189253 -0.092947140069702935 -0.093023051733127277 -0.093314103644987323 -0.0930542512153818 -0.092820007571987356 -0.093118159972485071 -0.092860928994662681
leaf_weight=3.1574213504791269 1.6951832361519397 2.1385251842439175 2.7574854791164389 2.4345777183771133 2.5551936551928529 1.4485544487833966 1.6790655776858319 1.5174650177359641 2.8694552890956411 1.4254645779728985 1.3425942212343218 1.5747301913797853 1.7761910855770207 1.2921329513192179 1.6958765126764763 1.3372961208223992 2.0647522024810323 1.7909836582839487 1.3553348854184153 2.0044149495661259 1.3018434159457788
leaf_count=32 22 21 22 26 29 18 17 20 36 20 21 24 26 22 27 21 31 28 22 31 21
internal_value=-0.000688564 0.0954088 0.226652 0.0447959 0.105215 -0.0722515 0.0207038 -0.0843038 -0.0394041 -0.0932307 -0.0931297 -0.09307 -0.0931722 -0.0929397 -0.0927837 -0.0932472 -0.0932985 -0.0930385 -0.0929533 -0.0932176 -0.0929685
internal_weight=41.2145 17.5917 4.89601 12.6957 7.39168 23.6228 4.23426 22.1743 5.30403 20.4791 18.9616 17.5362 9.82709 7.70906 2.98801 7.18265 5.84536 4.72105 3.14632 4.06917 2.64444
internal_count=537 183 43 140 78 354 46 336 62 314 294 274 151 123 49 109 88 74 50 62 42
is_linear=0
shrinkage=0.1


Tree=23
num_leaves=21
num_cat=0
split_feature=11 12 0 1 12 16 16 15 12 18 14 15 9 6 2 16 12 7 15 10
split_gain=6.75164 2.47383e-05 3.19428e-06 3.52946e-10 3.04023e-10 2.41954e-10 2.00864e-10 2.61121e-10 1.60778e-10 1.12935e-10 1.45391e-10 8.68397e-11 9.0531e-11 8.009e-11 7.28413e-11 7.27219e-11 8.73554e-11 7.91592e-11 4.11913e-11 3.82042e-11
threshold=2.0500357159019131 -0.095181011892754755 -0.067376367063708795 -0.1833222370040116 0.15521079908459831 -0.11018577591275371 -0.097074681996184423 -0.045283427354011467 0.066040887639870441 -0.044057790025870854 -0.043943220876542545 -0.045392017210184647 -0.061140973699026137 0.81788209210897211 -0.099223753584943453 -0.10297607541562329 0.05375838286892913 0.045831237251104336 -0.045371949243185765 -0.06121377072405839
decision_type=2 2 2 2 2 2 2 2 2 2 2 2 2 2 2 2 2 2 2 2
left_child=1 -1 -3 -4 5 14 7 8 15 10 13 -11 19 18 -5 16 -7 -17 -8 -13
right_child=-2 2 3 4 -6 6 9 -9 -10 11 -12 12 -14 -15 -16 17 -18 -19 -20 -21
leaf_value=-0.088767181406072981 0.65929481010701019 -0.088095825448319134 -0.087626061003025127 -0.087634255457086765 -0.087626449269165421 -0.087635555132040938 -0.087634889021669327 -0.087632540538369427 -0.087635384405850683 -0.08763642373159948 -0.087641119843107254 -0.087631280456179544 -0.087627889795112393 -0.087631139781426337 -0.087628682728446178 -0.087646732343576908 -0.087642513236113564 -0.087640998577384055 -0.087638977515635832 -0.087635624099540413
leaf_weight=0.2879286492243408 0.1332231431733818 0.18327765213325597 0.042508327285758929 0.041779988328926265 0.036116025410592556 0.035194506170228124 0.064846691442653315 0.058422013302333431 0.056187837035395205 0.056650202022865415 0.053153455839492381 0.037474565324373543 0.041496111778543288 0.039138214662671089 0.053477980080060439 0.040020132670179009 0.0370236795861274 0.060444353148341179 0.039745898568071425 0.044051957549527287
leaf_count=18 16 24 26 24 22 20 37 34 32 32 29 22 25 23 32 21 20 33 22 25
internal_value=-0.0189201 -0.0879485 -0.0877177 -0.0876349 -0.0876354 -0.0876358 -0.0876365 -0.0876385 -0.08764 -0.087635 -0.0876367 -0.0876332 -0.0876317 -0.087635 -0.0876311 -0.0876415 -0.0876391 -0.0876433 -0.0876364 -0.0876336
internal_weight=1.44216 1.30894 1.02101 0.837732 0.795224 0.759108 0.66385 0.287293 0.228871 0.376557 0.196884 0.179673 0.123023 0.143731 0.095258 0.172683 0.0722182 0.100464 0.104593 0.0815265
internal_count=537 521 503 479 453 431 375 160 126 215 111 104 72 82 56 94 40 54 59 47
is_linear=0
shrinkage=0.1


Tree=24
num_leaves=20
num_cat=0
split_feature=18 8 7 13 3 0 10 2 5 11 12 4 14 15 7 18 5 10 11
split_gain=22.7508 12.7273 8.68412 7.32044 6.55781 7.68241 8.80821 6.64775 8.37653 6.13166 5.50712 5.27148 3.68945 1.39872 0.155513 0.00145671 0.00158479 0.000652013 0.000514795
threshold=-0.044067431290787037 -0.04628577356608992 0.04582020835421239 -0.27700202407409263 -0.15358752114154753 -0.058963067977181025 -0.061205357851664609 -0.10082318621735506 0.018857110462998997 -0.18964849957179011 0.058279561998712676 0.01771051729914409 -0.043925874658056294 -0.045298105908705075 0.04576739622901714 -0.044074968813710702 -0.011927087384550113 -0.061197571859181225 0.97456528188237945
decision_type=2 2 2 2 2 2 2 2 2 2 2 2 2 2 2 2 2 2 2
left_child=2 14 15 -3 -5 7 12 8 11 -4 -8 -6 -7 -14 -2 16 18 -18 -1
right_child=1 3 9 4 5 6 10 -9 -10 -11 -12 -13 13 -15 -16 -17 17 -19 -20
leaf_value=-0.10943236740824408 -0.081967318884290291 -0.062304643054948254 0.050355844604861116 0.12548103943018496 0.021658123714975479 0.012447778678697072 0.10914753415162418 0.13730930246796108 -0.068240723121828675 -0.08508713691908526 -0.024460778387769892 0.14023152577836384 -0.12114182363122072 -0.047472350598826936 -0.11091901414471748 -0.10959392024338087 -0.10743778347895078 -0.10563009763298492 -0.10778854243667087
leaf_weight=4.2031470388174048 3.6354819834232321 6.3759218454360953 8.0394187420606595 9.8041758537292463 7.9680120646953636 6.4587958306074134 8.6975391954183632 10.458007812499995 5.3487301766872397 5.7210066914558402 4.7807424515485755 7.0816644728183746 5.1037709861993781 5.2061971873044994 3.7889547944068909 5.1214831471443203 4.8259200006723386 3.4018083512783051 3.4845182150602341
leaf_count=23 20 28 35 38 34 28 33 39 23 26 20 27 23 23 20 28 28 21 20
internal_value=0.000352209 0.0283173 -0.0677238 0.0403314 0.0495603 0.0373787 0.00156516 0.0724849 0.0392503 -0.00595566 0.0617567 0.0774531 -0.0468152 -0.0839411 -0.0967424 -0.108127 -0.107655 -0.10669 -0.108687
internal_weight=119.505 84.708 34.7973 77.2836 70.9076 61.1035 30.247 30.8564 20.3984 13.7604 13.4783 15.0497 16.7688 10.31 7.42444 21.0369 15.9154 8.22773 7.68767
internal_count=537 356 181 316 288 250 127 123 84 61 53 61 74 46 40 120 92 49 43
is_linear=0
shrinkage=0.1


Tree=25
num_leaves=20
num_cat=0
split_feature=7 0 1 17 1 4 16 16 19 17 9 17 18 10 3 16 17 18 5
split_gain=19.2581 8.9559 7.60249 8.87451 5.08248 4.01206 3.08775 5.1506 2.84401 1.51179 0.630975 0.473511 0.00103771 0.000198539 9.04133e-05 6.17179e-05 2.63889e-05 2.4412e-05 1.34276e-05
threshold=0.04584690171315766 -0.060985061778799497 -0.031825274035054578 -0.059935512975916434 -0.094425622981285706 0.0090004559743060205 -0.094952674037126886 -0.0892892103420415 -0.11179430076836935 -0.064674461614752765 -0.061131222329894409 -0.063965707659135021 -0.044033799460817959 -0.061222818425589472 -0.064639108604906084 -0.10258921893302891 -0.066223234254661548 -0.044074378464862847 -0.0097497081521137532
decision_type=2 2 2 2 2 2 2 2 2 2 2 2 2 2 2 2 2 2 2
left_child=5 -2 3 4 -3 10 8 -8 -7 -9 12 13 14 -10 16 -15 -1 18 -18
right_child=1 2 -4 -5 -6 6 7 9 11 -11 -12 -13 -14 15 -16 -17 17 -19 -20
leaf_value=-0.093065873936652707 -0.066374490015483054 0.15678882351492107 -0.02738210502963416 0.029219692458942754 0.32943978810586533 0.033854674013960619 0.15824933329214314 -0.094442933511042659 -0.095393821860609476 0.040746918174685703 -0.023438860244062915 -0.032527443397275257 -0.09568990732382561 -0.094499527416808352 -0.094073277658228691 -0.093692907639728984 -0.093511703682034791 -0.093723699692911069 -0.093077166899027508
leaf_weight=1.9165434725582597 3.1855851411819485 4.59904645383358 2.7960889935493443 3.6134629622101784 2.7096138298511505 3.0652985833585271 2.3525584749877453 1.8732880465686323 1.8441925980150702 1.4812739454209793 1.4031477384269226 1.5730873793363569 2.9931402727961549 2.0732734613120565 2.579575516283513 1.748622056096792 1.4388224966824052 2.5346232205629344 1.4060420766472814
leaf_count=30 33 36 26 26 17 36 26 25 22 20 19 18 37 27 35 25 21 36 22
internal_value=-0.000833682 0.0846741 0.11975 0.157416 0.220797 -0.0485629 -0.0141988 0.0448088 -0.0468801 -0.0347472 -0.0871158 -0.0810659 -0.0940588 -0.0945417 -0.0935644 -0.0941305 -0.0933845 -0.093498 -0.0932969
internal_weight=47.1873 16.9038 13.7182 10.9221 7.30866 30.2835 16.0116 5.70712 10.3045 3.35456 14.2719 7.23918 12.8687 5.66609 9.87561 3.8219 7.29603 5.37949 2.84486
internal_count=537 138 105 79 53 399 199 71 128 45 200 92 181 74 144 52 109 79 43
is_linear=0
shrinkage=0.1


Tree=26
num_leaves=23
num_cat=0
split_feature=0 0 15 12 7 4 2 1 1 11 15 13 14 7 6 15 14 0 6 2 1 0
split_gain=5.61191 7.04135 3.98987 0.000128018 5.20936e-05 2.53581e-05 7.96995e-06 8.01099e-07 4.79742e-08 4.14159e-08 2.83189e-08 2.72525e-08 2.73262e-08 1.84155e-08 1.50494e-08 8.24216e-09 7.81742e-09 7.49101e-09 7.08251e-09 5.62878e-09 4.99692e-09 2.01822e-09
threshold=-0.046212800266519645 -0.040278135053493196 -0.045251153305700141 0.15853292279013534 0.045876566572411667 0.040656685580685546 0.010831613155306471 0.017466795033055187 -0.1779914303145039 -1.0797492280278227 -0.045330561129486344 0.25884550202874462 -0.043962814499561902 0.045842345521678422 0.81788209210897211 -0.045439372421338088 -0.043946247670997633 -0.062184210877863313 0.26772786148579952 -0.060169461869104782 -0.097391970879072962 -0.05975018753620269
decision_type=2 2 2 2 2 2 2 2 2 2 2 2 2 2 2 2 2 2 2 2 2 2
left_child=3 2 -2 4 7 6 -3 8 16 -10 11 12 17 15 19 -14 -1 -11 -17 -12 -19 -13
right_child=1 5 -4 -5 -6 -7 -8 -9 9 10 14 21 13 -15 -16 18 -18 20 -20 -21 -22 -23
leaf_value=-0.087972501386387236 0.10863747047718608 -0.089110801976471685 0.51568169065357161 -0.090020721445046969 -0.0892638637004185 -0.089934756187890444 -0.088324201184758699 -0.08826525280164732 -0.088056507909350323 -0.08800731138339897 -0.087979583038171175 -0.087984550070865586 -0.088012603966861711 -0.087992840055412053 -0.087954573178824255 -0.088022018762136556 -0.087936356814506803 -0.087970611791084966 -0.08804854016396961 -0.088006738011931984 -0.087996881735464119 -0.087966820343433449
leaf_weight=0.1214259983971715 0.4769509406760335 0.27199378143995978 0.48638295661658049 0.43230848759412754 0.38163292035460461 0.26955324178561568 0.24468618677929044 0.11690904852002848 0.13037597527727607 0.21515238424763083 0.18504958460107446 0.12477380596101284 0.17113355919718887 0.15854900982230902 0.18056248174980283 0.1614410285837935 0.11797598190605718 0.15721841622143984 0.26758867828175426 0.12993018841370796 0.13422570843249704 0.13226214237511147
leaf_count=20 30 22 12 14 31 12 27 13 19 33 30 20 26 25 31 24 21 26 38 20 21 22
internal_value=-0.01201 0.132914 0.314152 -0.0884159 -0.0881755 -0.0891485 -0.0887383 -0.0880097 -0.0879972 -0.0880019 -0.0879984 -0.0880051 -0.0880111 -0.0880232 -0.0879776 -0.0880312 -0.0879547 -0.0879932 -0.0880386 -0.0879908 -0.0879827 -0.0879754
internal_weight=5.06808 1.74957 0.963334 3.31852 2.88621 0.786233 0.51668 2.50457 2.38766 2.14826 2.01789 1.52234 1.26531 0.758712 0.495542 0.600163 0.239402 0.506597 0.42903 0.31498 0.291444 0.257036
internal_count=537 103 42 434 420 61 49 389 376 335 316 235 193 113 81 88 41 80 62 50 47 42
is_linear=0
shrinkage=0.1


Tree=27
num_leaves=20
num_cat=0
split_feature=18 8 7 10 18 0 16 16 9 11 11 11 10 17 19 17 15 16 4
split_gain=45.626 18.1374 9.57046 8.43991 6.79878 5.94634 4.01616 3.72819 3.0078 2.94403 3.67687 0.928142 0.508304 0.578519 0.00608272 0.00235273 0.00144809 0.00157382 0.000471481
threshold=-0.044063271609395709 -0.046283693308669695 0.045826346004420239 -0.061215418008439555 -0.044078643673480376 -0.055904702101337682 -0.10843420820740389 -0.083481885730815206 -0.061143188855352734 0.37829832028191129 0.54776453125964586 0.3400973587887951 -0.061222881057195498 -0.05827493310143475 -0.083172254922471753 -0.061522354584787033 -0.045283427354011467 -0.1012368835968807 0.022672856432870852
decision_type=2 2 2 2 2 2 2 2 2 2 2 2 2 2 2 2 2 2 2
left_child=2 -2 3 5 -4 -1 -3 11 -6 12 -11 -5 -8 14 15 16 17 -14 -19
right_child=1 6 4 7 8 -7 9 -9 -10 10 -12 -13 13 -15 -16 -17 -18 18 -20
leaf_value=-0.026503910700457867 0.068371412431984566 -0.0042212864280130828 0.091675685088549591 0.13360384751338558 0.008934691076247574 0.090471140485263474 -0.068631049421265494 0.073629640983021244 -0.10112458590382117 0.020363939392553321 -0.097721819003412411 0.18335750857937202 -0.1116483725993917 -0.072539947377590938 -0.11432264410363142 -0.11209692030021119 -0.10839100224618391 -0.11027747413355174 -0.10878744323729489
leaf_weight=7.4974871128797558 9.8452348411083204 6.3525355011224738 5.2335167676210395 6.6930818110704413 4.7097024321556082 10.337785214185709 4.136206179857246 7.0782825499773088 5.252275973558425 4.9843718111515027 5.5986259281635284 8.5251649618148786 5.386958211660386 4.5407723337412014 4.3928754478693 5.5847608000040045 5.4819775074720392 3.9025606513023359 4.658628910779953
leaf_count=30 39 32 20 25 22 39 20 26 24 23 27 31 28 22 22 29 31 21 26
internal_value=0.000268237 -0.056634 0.0669802 0.0925726 -0.000609935 0.0412979 -0.0790023 0.133588 -0.0490921 -0.0887634 -0.0421059 0.161476 -0.101729 -0.105761 -0.110891 -0.110288 -0.109768 -0.110309 -0.109467
internal_weight=120.193 64.8655 55.3273 40.1318 15.1955 17.8353 55.0203 22.2965 9.96198 48.6677 10.583 15.2182 38.0847 33.9485 29.4078 25.0149 19.4301 13.9481 8.56119
internal_count=537 320 217 151 66 69 281 82 46 249 50 56 199 179 157 135 106 75 47
is_linear=0
shrinkage=0.1


Tree=28
num_leaves=20
num_cat=0
split_feature=6 17 8 12 14 4 16 14 13 2 8 0 3 4 16 16 2 14 15
split_gain=12.5018 7.1063 6.8254 6.49154 9.82834 6.28782 5.05478 4.63178 2.5306 2.85405 2.45888 1.89177 0.473109 0.00199639 0.00133027 7.30231e-05 5.56142e-05 4.35208e-05 1.10399e-05
threshold=0.81788209210897211 -0.060470723803402328 -0.046266982242028222 0.062029790043363085 -0.043946247670997633 0.024958926052635954 -0.10996090664691642 -0.043923097771777858 0.23310768864456685 -0.0069136722799657468 -0.046255795331322958 -0.05256289817743541 -0.038466206406038934 0.01837015418705518 -0.10138685695273571 -0.096988518172397606 -0.10903462241324094 -0.043911563694643156 -0.045394490207648526
decision_type=2 2 2 2 2 2 2 2 2 2 2 2 2 2 2 2 2 2 2
left_child=6 2 3 4 -2 10 11 -7 9 12 13 -1 14 -4 -8 -16 -17 18 -18
right_child=1 -3 5 -5 -6 7 8 -9 -10 -11 -12 -13 -14 -15 15 16 17 -19 -20
leaf_value=0.11268607437411067 0.032601025187580818 0.19167341681927019 -0.10057965067270787 -0.0030172324739926072 0.28691992746839673 -0.0058837809259248168 -0.097720442909588215 0.15550180295459701 0.038642464645363916 0.0027621435525409573 0.0029658974084159715 -0.014214846162704232 -0.042498668606111373 -0.096925207177240499 -0.095962129385017775 -0.095744133226303429 -0.095555447885429162 -0.094888922871744219 -0.095243402144245537
leaf_weight=2.3525214791297913 3.0239897966384888 3.0128179043531409 3.591275937855249 4.0508715435862541 3.0544753745198303 4.2108997628092766 3.4895442575216409 3.0784586593508712 2.1914378777146331 3.9828679859638205 3.8347183838486636 2.3464205712080028 1.8377931341528881 2.5608052760362625 2.9207769036293145 3.1346533149480917 2.5472632050514323 2.3705287650227227 2.0431947559118266
leaf_count=20 26 18 29 32 20 35 33 21 20 38 31 20 19 26 32 35 29 29 24
internal_value=0.00102437 0.0458973 0.0298714 0.095046 0.160398 -0.00834171 -0.0456936 0.062273 -0.0639027 -0.0739679 -0.0598833 0.049318 -0.0906278 -0.0990585 -0.0959866 -0.0955218 -0.0953944 -0.0952369 -0.0954166
internal_weight=59.6353 30.4183 27.4055 10.1293 6.07847 17.2762 29.217 7.28936 24.5181 22.3266 9.9868 4.69894 18.3438 6.15208 16.506 13.0164 10.0956 6.96099 4.59046
internal_count=537 238 220 78 46 142 299 56 259 239 86 40 201 55 182 149 117 82 53
is_linear=0
shrinkage=0.1


Tree=29
num_leaves=24
num_cat=0
split_feature=6 18 5 12 19 10 14 2 15 7 19 6 10 14 19 3 3 12 10 13 18 5 18
split_gain=18.7856 8.56116 4.79578 6.98773 4.79221 6.03532 8.21977 5.78309 5.70148 3.05666 3.1365 4.65364 2.77669 2.60385 2.58447 0.371502 0.248939 0.000190575 0.000154252 0.000126133 0.000118674 9.04001e-05 2.60305e-05
threshold=0.81788209210897211 -0.044072091238249067 0.00063384977305074041 0.065872862259487172 -0.072371456152435037 -0.061217288580366673 -0.043888467905247606 -0.13404932607699507 -0.045366522811245605 0.045856654469775361 -0.11568621497049116 -0.55818205532731835 -0.06120248715646235 -0.043955194156577206 -0.053420968708376169 -0.038466206406038934 -0.11159556475742689 0.038480828654134713 -0.061215418008439555 0.1656980461718621 -0.044073925676617727 -0.0041018996528491766 -0.044085786224646269
decision_type=2 2 2 2 2 2 2 2 2 2 2 2 2 2 2 2 2 2 2 2 2 2 2
left_child=2 16 15 9 5 7 12 -3 13 10 -4 -12 -7 -9 -6 18 -2 -11 -1 -19 22 -22 -20
right_child=1 4 3 -5 14 6 -8 8 -10 17 11 -13 -14 -15 -16 -17 -18 19 20 -21 21 -23 -24
leaf_value=-0.098938426094221099 -0.052340293504929074 0.015326204601288805 -0.10048476956840924 0.091417273629164575 -0.075477612541481762 -0.10569257538461196 0.14629329470956981 0.14762041551418745 0.057513812608955883 -0.099535050107637524 0.11134773516350799 -0.051368796359736651 0.025505721708905579 0.25425259509610404 0.051729811958154764 -0.0548372315659039 -0.09828950873579903 -0.097914346107561695 -0.098071157724000935 -0.098975323746808619 -0.098139864359392218 -0.09900296947096604 -0.097584923987686242
leaf_weight=4.2992591187357894 2.1846487000584602 4.16222766786814 2.9150228500366229 4.4816538244485846 3.1987387761473656 3.4762311354279518 3.446783974766733 5.2008146941661835 4.5072649866342518 2.642089143395423 3.2278663069009799 3.8588694185018557 3.0098445788025856 4.0916527807712555 3.1898933351039878 2.282273441553115 2.5615209490060797 2.1606093272566795 2.2985217198729515 2.3276481851935387 2.5256695896387082 2.3357691913843173 2.1133059412240964
leaf_count=37 20 27 23 25 20 22 18 24 22 22 21 27 19 22 21 20 23 20 21 20 23 20 20
internal_value=0.000182029 0.0487359 -0.0503947 -0.0197531 0.0661619 0.0840543 0.0215042 0.118644 0.149807 -0.0488346 -0.0131702 0.0227453 -0.0448104 0.194573 -0.011962 -0.0921663 -0.0771392 -0.0988612 -0.0984433 -0.0984646 -0.0982138 -0.0985546 -0.0978382
internal_weight=76.4982 39.0296 37.4686 21.6138 34.2835 27.8948 9.93286 17.962 13.7997 17.1321 10.0018 7.08674 6.48608 9.29247 6.38863 15.8548 4.74617 7.13035 13.5725 4.48826 9.27327 4.86144 4.41183
internal_count=537 238 299 158 195 154 59 95 68 133 71 48 41 46 41 141 43 62 121 40 84 43 41
is_linear=0
shrinkage=0.1


Tree=30
num_leaves=21
num_cat=0
split_feature=4 1 11 10 19 2 11 15 5 9 1 7 14 18 17 15 16 3 18 10
split_gain=23.1602 7.40054 7.14275 9.52463 9.49444 6.48599 5.21732 2.08693 0.00038064 9.54432e-05 2.63467e-05 2.71954e-05 1.29774e-05 1.20819e-05 1.13609e-05 1.003e-05 9.25887e-06 6.26232e-06 6.53179e-06 3.5328e-06
threshold=0.006874048023686399 -0.16386005775373091 0.13609770185559347 -0.061197571859181225 -0.11682751489050174 0.12017781149927566 -0.37425852425853662 -0.045463006774541938 -0.0018110894123147322 -0.061145132382922872 -0.17754568908249538 0.045842345521678422 -0.043962814499561902 -0.044025508553007311 -0.060700557737147449 -0.04530388530677177 -0.10138685695273571 -0.076464957998710711 -0.044054191715989351 -0.061213432220895085
decision_type=2 2 2 2 2 2 2 2 2 2 2 2 2 2 2 2 2 2 2 2
left_child=1 -1 6 4 -4 7 -3 -2 -9 -10 -11 12 -12 17 -15 16 -14 18 -13 -18
right_child=5 2 3 -5 -6 -7 -8 8 9 10 11 13 15 14 -16 -17 19 -19 -20 -21
leaf_value=-0.062766722106270753 0.022590425584082655 0.10062746085390835 0.31903199094354051 -0.010765216500260228 0.080596934978460585 0.10629384868400645 -0.095384938574054265 -0.09427314950360316 -0.093419409541564066 -0.092103879857143189 -0.092505702059904382 -0.092811696476072458 -0.093075711583166562 -0.092464827060960167 -0.09204919793644685 -0.092534181076458333 -0.092664014560144614 -0.092408858294151811 -0.092499086277303633 -0.092871186883109025
leaf_weight=2.8529069013893631 1.7077551484108031 3.5323981456458569 4.2358021661639214 2.2690553329884988 2.7570848688483238 1.9731303378939617 2.2059695385396472 1.5210307873785556 1.3926502764225102 1.1897940896451586 2.0874913968145945 1.2825978584587572 1.4091720283031564 1.5034545399248602 1.1690311953425405 1.1715639047324247 1.6178712956607442 1.8318614810705183 1.3957158550620081 1.675562813878049
leaf_count=31 22 37 30 23 23 22 27 22 21 22 36 21 22 26 22 20 27 32 24 27
internal_value=-0.000537115 0.0848651 0.112943 0.167259 0.225024 -0.0670348 0.0252755 -0.083355 -0.092755 -0.0926247 -0.092557 -0.0925926 -0.0927199 -0.0924515 -0.092283 -0.092796 -0.0928612 -0.0925513 -0.0926488 -0.0927694
internal_weight=40.7819 17.8532 15.0003 9.26194 6.99289 22.9287 5.73837 20.9556 19.2478 17.7268 16.3341 15.1443 7.96166 7.18266 2.67249 5.87417 4.70261 4.51018 2.67831 3.29343
internal_count=537 171 140 76 53 366 64 344 322 300 279 257 132 125 48 96 76 77 45 54
is_linear=0
shrinkage=0.1


Tree=31
num_leaves=23
num_cat=0
split_feature=8 12 0 11 1 15 18 19 6 4 4 4 16 15 14 2 15 9 5 5 13 2
split_gain=3.96014 2.3163e-05 2.28344e-06 7.4782e-08 4.81961e-10 4.32162e-10 5.79573e-10 3.271e-10 2.57379e-10 2.49872e-10 1.74131e-10 2.34083e-10 1.52697e-10 1.35556e-10 1.33429e-10 1.24735e-10 1.07299e-10 9.43195e-11 8.65202e-11 8.23684e-11 7.25967e-11 4.50167e-11
threshold=-0.046360409018029271 -0.085014479754062872 -0.067376367063708795 2.0500357159019131 -0.17754568908249538 -0.045276281358960453 -0.044074968813710702 -0.087791422679888029 0.81788209210897211 0.018156296403081723 0.012847047030933617 0.0008099197308312681 -0.096890221776668325 -0.045427002721190067 -0.043957836626783604 -0.0069136722799657468 -0.044834823023048441 -0.061140153555433778 0.017105340966863652 0.020778377009171362 0.18294880316302828 -0.085891118494405991
decision_type=2 2 2 2 2 2 2 2 2 2 2 2 2 2 2 2 2 2 2 2 2 2
left_child=-1 -2 -3 4 -4 6 10 9 15 13 11 -6 18 -8 -15 20 -10 -16 -11 -9 -7 -14
right_child=1 2 3 -5 5 8 7 19 16 12 -12 -13 21 14 17 -17 -18 -19 -20 -21 -22 -23
leaf_value=0.38389823654422645 -0.088727384619393085 -0.088039580653457072 -0.087613407550768393 -0.087762382348818571 -0.087622959724905705 -0.08762248073533499 -0.087635856039148474 -0.087616904237492521 -0.087609977742350631 -0.087624975469451707 -0.087624281918002644 -0.087611906416834903 -0.087624310853733151 -0.087623911669234195 -0.087634001456637023 -0.087627128438327484 -0.087618304472550271 -0.087627655503612206 -0.087631930929882723 -0.087623809201996444 -0.087616071193555078 -0.087619160092414619
leaf_weight=0.20826930971816193 0.28986798599362362 0.16598821384832252 0.049855545628815778 0.040594699326902628 0.031913417973555513 0.042899449123069644 0.042291127261705586 0.030334651935845725 0.031307107536122203 0.035622034803964198 0.041932392050512135 0.04794210521504283 0.035506464424543083 0.033587178797460981 0.053853012155741342 0.03463480784557782 0.030603070626966655 0.041446581948548777 0.03591533622238785 0.040130211971700191 0.030048649990931153 0.03249853162560612
leaf_count=25 21 24 34 12 20 27 24 20 22 22 26 33 22 21 31 21 20 25 21 25 20 21
internal_value=-0.0190836 -0.087947 -0.0877034 -0.0876303 -0.0876229 -0.0876236 -0.0876251 -0.087627 -0.0876192 -0.0876284 -0.0876191 -0.0876163 -0.0876252 -0.0876309 -0.0876293 -0.0876222 -0.0876141 -0.0876312 -0.0876285 -0.0876208 -0.0876198 -0.0876218
internal_weight=1.42704 1.21877 0.928905 0.762916 0.722322 0.672466 0.502973 0.381185 0.169493 0.31072 0.121788 0.0798555 0.139542 0.171178 0.128887 0.107583 0.0619102 0.0952996 0.0715374 0.0704649 0.0729481 0.068005
internal_count=537 512 491 467 455 421 311 232 110 187 79 53 86 101 77 68 42 56 43 45 47 43
is_linear=0
shrinkage=0.1


Tree=32
num_leaves=21
num_cat=0
split_feature=18 8 1 11 14 19 5 14 13 15 0 3 6 15 3 7 11 10 5 1
split_gain=18.8588 13.0075 6.64856 5.50227 6.21991 4.99695 5.93644 5.87018 5.29183 4.3797 4.29449 4.05597 2.73066 2.61412 3.02739 1.79647 0.185283 0.00143148 0.000832773 0.000405969
threshold=-0.044075350787373867 -0.04628577356608992 -0.17754568908249538 0.18861459988714849 -0.043910750585128 -0.092155211448346847 0.017449845590567618 -0.043924612968559394 -0.092822939255017653 -0.045432391192397052 -0.061940608001970827 -0.10333255921113761 0.31661870721786861 -0.045165910894154976 -0.098689930372667559 0.045824310038983865 -0.24048622350355939 -0.061213432220895085 -0.010027120620117831 -0.075384981143295407
decision_type=2 2 2 2 2 2 2 2 2 2 2 2 2 2 2 2 2 2 2 2
left_child=15 16 -3 5 10 6 7 9 -7 -4 -5 -10 -11 14 -9 17 -2 19 -19 -1
right_child=1 2 3 4 -6 8 -8 13 11 12 -12 -13 -14 -15 -16 -17 -18 18 -20 -21
leaf_value=-0.10668650226674731 -0.077341557961533566 0.10772384133013668 0.063114541561712492 0.0062967069747114955 0.044929165392040858 0.077591967950659216 0.12037666065442509 0.15349664334626004 0.0067754269044026779 0.0049141136885981753 -0.11783606343577538 -0.11912250866713646 -0.10021199379916197 0.023541049134096322 0.047377694747826986 -0.041988007586788778 -0.10705128382463046 -0.10520601480254639 -0.10308015586345401 -0.10516181669919725
leaf_weight=3.6654270142316818 3.3687942326068878 9.9567742198705655 5.0060417652130118 4.5018415302038202 7.7046519070863715 4.4220898151397714 10.191146984696386 5.6196823567151943 5.3649936169385901 4.5976532846689135 7.3165740370750436 4.8924709260463688 5.3414212316274643 6.7992463409900834 5.153774455189704 6.5857856124639502 5.5695741474628431 3.1835464686155328 4.3751654326915741 3.3355413079261789
leaf_count=22 20 37 20 20 31 19 39 21 22 20 35 23 25 28 20 31 33 20 30 21
internal_value=0.00014914 0.0190144 0.0308339 0.0208799 -0.0249779 0.0364803 0.05378 0.0329084 -0.0138516 -0.0131633 -0.0705517 -0.0532737 -0.0515824 0.0720912 0.102732 -0.0853265 -0.0958539 -0.10493 -0.103976 -0.10596
internal_weight=116.952 95.8067 86.8684 76.9116 19.5231 57.3885 42.709 32.5178 14.6796 14.9451 11.8184 10.2575 9.93907 17.5727 10.7735 21.1455 8.93837 14.5597 7.55871 7.00097
internal_count=537 413 360 323 86 237 173 134 64 65 55 45 45 69 41 124 53 93 50 43
is_linear=0
shrinkage=0.1


Tree=33
num_leaves=23
num_cat=0
split_feature=18 7 14 7 16 15 15 13 12 2 19 19 17 8 4 3 6 19 11 19 1 2
split_gain=15.6472 8.02135 8.2875 5.95076 5.90952 5.46932 6.71172 5.4256 3.95848 1.08809 0.602143 0.413022 0.00163403 0.000714971 0.000203203 0.000119968 7.82835e-05 5.32801e-05 8.882e-05 3.60783e-05 1.68953e-05 8.79885e-06
threshold=-0.044025508553007311 0.045838661667660353 -0.043886975710761354 0.045828338327261207 -0.09744943981151942 -0.04536165083206041 -0.04544299200432933 -0.094892925245492657 0.049331515722270292 -0.059336434283748969 -0.12782342608849157 -0.095609103635423145 -0.065249530528666319 -0.046249041263523603 0.006874048023686399 -0.068551805682387848 0.81788209210897211 -0.11102573988565929 0.17673970164796651 -0.12182673323914352 -0.085050086027023949 -0.11279009461211546
decision_type=2 2 2 2 2 2 2 2 2 2 2 2 2 2 2 2 2 2 2 2 2 2
left_child=3 7 -3 10 11 6 -6 -2 -4 -7 -1 13 -9 -5 16 17 19 -16 -19 -12 -21 -18
right_child=1 2 8 4 5 9 -8 12 -10 -11 14 -13 -14 -15 15 -17 21 18 -20 20 -22 -23
leaf_value=-0.026626426842272649 0.097385613939480073 0.26119738517683039 0.14349096490010593 -0.094081402506689338 -0.01486276487248438 -0.095465472546224436 0.20478067563718813 -0.093388398693532146 -0.010907771303263286 0.011947233354775592 -0.092827706681124666 -0.035559798499172034 -0.097794246443997798 -0.096721151525926141 -0.09288658393542161 -0.094398926415531048 -0.092617262567526393 -0.093085976045416519 -0.094174356809869922 -0.093576920342863593 -0.093103870445528994 -0.092229597536734223
leaf_weight=1.5045270174741734 2.5519188232719889 3.3898661695420742 3.4454798102378827 2.1989414915442462 2.4102356098592272 1.9404621049761774 3.2906207740306854 1.5755311995744699 3.2052250429987907 1.8348423801362503 2.3939979746937721 1.607966974377631 1.8075216189026839 1.9235976040363314 1.3618801347911351 1.6843719035387037 1.1853872463107111 1.4709375239908702 1.5294264294207094 1.5559786073863477 1.4666961617767889 1.1568841151893137
leaf_count=24 27 19 18 30 25 23 33 24 25 19 39 17 18 21 22 22 20 23 21 23 23 21
internal_value=-0.000716726 0.0794637 0.133942 -0.0426913 0.00161744 0.0500949 0.111919 -0.0127012 0.0690804 -0.0432616 -0.0867006 -0.0785465 -0.0957424 -0.0953131 -0.0932475 -0.0936821 -0.0929088 -0.0934053 -0.0936408 -0.0931177 -0.0933474 -0.0924258
internal_weight=46.4923 15.9755 10.0406 30.5168 15.2067 9.47616 5.70086 5.93497 6.6507 3.7753 15.3101 5.73051 3.38305 4.12254 13.8056 6.04662 7.75894 4.36224 3.00036 5.41667 3.02267 2.34227
internal_count=537 131 62 406 168 100 58 69 43 42 238 68 42 51 214 88 126 66 44 85 46 41
is_linear=0
shrinkage=0.1


Tree=34
num_leaves=23
num_cat=0
split_feature=1 9 3 12 7 4 2 0 1 15 18 10 2 0 4 13 14 13 19 6 18 15
split_gain=4.71346 4.63123 1.59545 8.33357e-05 4.78887e-05 1.86228e-05 4.40296e-06 3.7515e-06 4.44813e-08 3.15682e-08 3.26686e-08 2.55065e-08 2.07557e-08 1.37891e-08 9.53828e-09 9.46684e-09 9.04827e-09 7.32739e-09 5.59619e-09 5.06642e-09 3.24723e-09 2.52473e-09
threshold=-0.047234002899191101 -0.061143387451524166 -0.055794925862413795 0.17260002786583334 0.045876566572411667 0.041255972136461483 -0.0069136722799657468 -0.045974692300234453 -0.1779914303145039 -0.045337546266362772 -0.044076193759623017 -0.061222477693810791 -0.076900403533036843 -0.052443357109865169 0.019561023644377069 0.022548237301726375 -0.043946247670997633 -0.22020306836790396 -0.12227731524597271 0.63531229114170218 -0.044064445363771347 -0.04539626910185892
decision_type=2 2 2 2 2 2 2 2 2 2 2 2 2 2 2 2 2 2 2 2 2 2
left_child=3 5 -3 4 7 6 -2 8 16 10 18 15 14 19 20 17 -1 -12 -10 -11 -13 -22
right_child=1 2 -4 -5 -6 -7 -8 -9 9 13 11 12 -14 -15 -16 -17 -18 -19 -20 -21 21 -23
leaf_value=-0.087926775609192931 -0.088974098948221392 0.10285287853783597 0.33848631131821266 -0.089819979533340588 -0.089191059952149501 -0.08973995669369407 -0.088340449346346536 -0.08835149553944513 -0.087915158409301281 -0.087931245382979972 -0.087941269681198253 -0.087966838034630235 -0.088012935461158348 -0.08795841736272493 -0.087950645850904369 -0.087929342063777727 -0.08788564198292087 -0.087974621376551265 -0.087944538344796208 -0.087905533028347776 -0.087993260202799448 -0.087974448798786284
leaf_weight=0.10970441624522209 0.2371419547125696 0.51171513553708792 0.65536209428682901 0.34253874793648709 0.39029899239540089 0.26640269951894879 0.20398797653615475 0.26185227697715197 0.12797003844752908 0.17730757594108582 0.11293292930349708 0.13796793622896142 0.15532265184447014 0.13463617861270827 0.15606650244444609 0.1489656139165163 0.10434016725048523 0.15808535274118252 0.13140431651845652 0.1349664144217968 0.17155864927917786 0.12214229814708166
leaf_count=20 19 37 8 12 33 14 23 28 24 32 20 23 24 23 27 27 21 26 23 26 27 20
internal_value=-0.0122176 0.112789 0.235171 -0.0883496 -0.0881654 -0.0890798 -0.0886811 -0.0879947 -0.0879499 -0.0879548 -0.0879621 -0.0879693 -0.0879804 -0.0879317 -0.0879718 -0.0879496 -0.0879067 -0.0879607 -0.08793 -0.0879201 -0.0879795 -0.0879854
internal_weight=4.95267 1.87461 1.16708 3.07806 2.73552 0.707533 0.44113 2.34522 2.08337 1.86933 1.42242 1.16304 0.743058 0.44691 0.587735 0.419984 0.214045 0.271018 0.259374 0.312274 0.431669 0.293701
internal_count=537 101 45 436 424 56 42 391 363 322 241 194 121 81 97 73 41 46 47 58 70 47
is_linear=0
shrinkage=0.1


Tree=35
num_leaves=21
num_cat=0
split_feature=18 8 5 1 5 7 10 16 17 11 11 10 12 5 17 19 4 3 17 6
split_gain=36.2819 15.1988 7.39047 6.80098 6.20888 7.62843 6.19946 3.74644 3.02253 2.81676 3.25066 2.73926 2.17585 0.533329 0.609841 0.0046811 0.00212812 0.00165899 0.000496638 0.000195012
threshold=-0.044063271609395709 -0.046283693308669695 0.0090411579339785015 -0.060354203222535777 -0.01177921282422619 0.045824028996253742 -0.061220589418665351 -0.10843420820740389 -0.063111849976868792 0.37829832028191129 0.54776453125964586 -0.061213432220895085 0.033428934895191421 0.035429874328888722 -0.05827493310143475 -0.090708157149559765 0.022461992105788878 -0.098049597960005494 -0.065485873853789747 0.18175840038320165
decision_type=2 2 2 2 2 2 2 2 2 2 2 2 2 2 2 2 2 2 2 2
left_child=2 -2 3 4 8 11 -4 -3 -1 13 -11 -6 -5 14 15 16 17 18 -9 -18
right_child=1 7 6 12 5 -7 -8 9 -10 10 -12 -13 -14 -15 -16 -17 19 -19 -20 -21
leaf_value=-0.069952440424272552 0.059852993751725425 -0.0020604108065146939 0.068993779717239051 0.16879877539831875 0.058646959294532168 -0.02322057058027344 -0.087449964693676191 -0.10633982030688534 0.038017232865408132 0.01933946315433566 -0.093442500966356826 0.14778378257150504 0.091410347233137318 -0.063744791463804115 -0.067524271862643703 -0.11059010127136271 -0.10654394633023684 -0.1093111826244573 -0.1079572677124491 -0.10549923579962323
leaf_weight=4.9681246727705002 10.040969029068945 6.2557826042175284 4.554117277264595 7.6887549906969053 5.266543209552764 5.2040184736251822 5.7075996994972211 3.9742878228425988 5.4229513108730298 4.9899149984121305 5.2384993880987167 9.98232045769692 6.8876528888940811 4.0151283890008918 4.3038750141859117 5.7930438518524161 3.3300474584102622 6.2504435330629358 3.6343580186367035 3.8554834425449371
leaf_count=20 39 32 20 28 20 21 26 24 20 23 27 36 26 21 22 32 20 35 21 24
internal_value=0.000106754 -0.0527203 0.058626 0.0759426 0.0493414 0.0813211 -0.0180207 -0.0746089 -0.0136046 -0.0846089 -0.038422 0.116998 0.132231 -0.0980464 -0.102469 -0.108073 -0.10738 -0.108104 -0.107112 -0.105983
internal_weight=117.364 61.6818 55.6821 45.4204 30.844 20.4529 10.2617 51.6409 10.3911 45.3851 10.2284 15.2489 14.5764 35.1567 31.1415 26.8377 21.0446 13.8591 7.60865 7.18553
internal_count=537 320 217 171 117 77 46 281 40 249 50 56 54 199 178 156 124 80 45 44
is_linear=0
shrinkage=0.1


Tree=36
num_leaves=22
num_cat=0
split_feature=6 17 8 16 14 12 16 14 15 14 9 11 11 11 15 2 13 13 1 8 0
split_gain=10.1374 8.35329 5.25624 5.4109 4.95219 6.42364 4.82784 4.4094 2.99517 2.54678 2.31887 1.64131 1.80733 0.37388 0.00411447 0.0011206 0.000266546 6.35899e-05 4.15004e-05 3.35622e-05 2.27709e-05
threshold=0.81788209210897211 -0.059205116302864257 -0.046266982242028222 -0.10549432149009599 -0.043968913202632125 0.062029790043363085 -0.10105036558866877 -0.043920654569131475 -0.045375333622763331 -0.043906994945172848 -0.061141465754153086 1.3235599309323318 -1.1212633559567029 0.25679420565504085 -0.045447884621600911 -0.0069136722799657468 0.21068383051968306 0.17148847913454482 -0.098761675940696056 -0.046258698957722985 -0.059938334704906428
decision_type=2 2 2 2 2 2 2 2 2 2 2 2 2 2 2 2 2 2 2 2 2
left_child=6 2 4 -4 -2 -6 8 13 10 -10 -1 12 -8 14 -5 16 17 18 19 -14 -21
right_child=1 -3 3 7 5 -7 11 -9 9 -11 -12 -13 15 -15 -16 -17 -18 -19 -20 20 -22
leaf_value=0.13694543482648155 -0.017355117301205827 0.2034909819798518 0.079039419175977746 -0.10187093404104348 0.1992812196260314 0.0060697881783904296 0.0079525163670922227 0.038469924665279244 -0.096976107266393829 0.047229552621631032 -0.0046883832991482669 0.019269990246604973 -0.095038956539106587 -0.049660472473386119 -0.096726972610569326 -0.097190201173839294 -0.096000222705320992 -0.094200739828197488 -0.095168285434749242 -0.094245882814934706 -0.094767888788938215
leaf_weight=2.5212659984827042 3.6095703840255737 2.8542013317346564 4.9064087346196237 2.788213469088082 4.5262051448226028 2.7761654108762741 1.919370636343962 4.2206105664372329 3.0440621450543404 2.0490860044956225 2.1346739530563354 1.7299267873167981 1.7380520403385187 2.03029964864254 3.5155412629246721 2.7377363145351348 1.9729013964533813 1.8688119426369665 2.6872733905911437 1.7349255234003091 1.6122052967548346
leaf_count=20 30 15 35 22 27 22 21 31 31 18 20 19 21 19 37 27 22 25 32 23 20
internal_value=0.00133868 0.0404216 0.0240175 -0.0100077 0.0784639 0.125827 -0.042641 -0.0448076 0.0140366 -0.038959 0.0720086 -0.0733365 -0.0831822 -0.0869818 -0.0990022 -0.0953702 -0.0949412 -0.0947245 -0.0948504 -0.0946824 -0.0944973
internal_weight=58.9775 31.2272 28.373 17.4611 10.9119 7.30237 27.7503 12.5547 9.74909 5.09315 4.65594 18.0012 16.2713 8.33405 6.30375 14.3519 11.6142 9.64127 7.77246 5.08518 3.34713
internal_count=537 238 223 144 79 49 299 109 89 49 40 210 191 78 59 170 143 121 96 64 43
is_linear=0
shrinkage=0.1


Tree=37
num_leaves=21
num_cat=0
split_feature=6 18 5 5 15 17 15 3 5 15 18 18 2 18 10 7 10 18 1 5
split_gain=15.2423 6.71848 4.52286 6.60845 6.04864 3.84242 5.99825 6.01441 4.26981 3.958 2.40736 2.26122 1.54636 0.415507 0.274135 0.00355305 0.000334101 0.000128367 9.95693e-05 6.45729e-05
threshold=0.81788209210897211 -0.044072091238249067 0.00063384977305074041 0.0096362343213099218 -0.045409449988768974 -0.066738161547148303 -0.045428229452604683 -0.079865552677127416 0.0064996525042202965 -0.045377067975384301 -0.044027691680279916 -0.044023475945832287 -0.056223124347577619 -0.044091920735843428 -0.061216565722885453 0.045853315337420979 -0.0612194374955135 -0.044073925676617727 -0.1515262581103092 -0.0093157661325408755
decision_type=2 2 2 2 2 2 2 2 2 2 2 2 2 2 2 2 2 2 2 2
left_child=2 14 13 4 -4 6 -3 11 -7 -10 -6 -8 15 -1 -2 -5 -15 19 -19 -18
right_child=1 5 3 12 10 8 7 -9 9 -11 -12 -13 -14 16 -16 -17 17 18 -20 -21
leaf_value=-0.04881378895256562 -0.097283795283774316 -0.05554955847805159 0.13392801033769194 -0.10171200298939152 -0.076915434316983666 0.0093527336485896232 0.13519437003374121 -0.04835871824360545 0.18274857862268448 0.059343370696163716 0.050104956055864049 0.04293213638943396 -0.019126581670130541 -0.09822582860781498 -0.046988905100992018 -0.097230269313910309 -0.096976381921087262 -0.096755259834151536 -0.097645409664167349 -0.096169730969230718
leaf_weight=2.0610106959938994 2.3680170848965645 5.924717664718627 4.0992185547947884 3.1867261305451375 3.5210811495780945 4.0756159126758567 6.8995235413312885 3.6335965767502811 6.0545202419161788 4.5538303703069678 2.5893408730626124 4.3194527775049218 3.6327630504965782 2.9751674383878699 1.9981806352734555 3.9759149625897408 2.0080187693238263 1.9627831354737262 3.4926779270172137 1.9620396941900233
leaf_count=20 23 39 24 24 24 23 31 25 32 24 19 21 28 27 20 39 20 20 33 21
internal_value=0.000324674 0.042783 -0.047354 -0.0177232 0.0399538 0.0571949 0.0295221 0.0634573 0.0963509 0.129775 -0.0230895 0.0996722 -0.0722706 -0.0903917 -0.0742665 -0.0992242 -0.097302 -0.0970103 -0.0973251 -0.0965777
internal_weight=75.2942 39.8275 35.4667 21.005 10.2096 35.4613 20.7773 14.8526 14.684 10.6084 6.11042 11.219 10.7954 14.4617 4.3662 7.16264 12.4007 9.42552 5.45546 3.97006
internal_count=537 238 299 158 67 195 116 77 79 56 43 52 91 141 43 63 121 94 53 41
is_linear=0
shrinkage=0.1


Tree=38
num_leaves=22
num_cat=0
split_feature=5 9 19 10 13 0 17 19 7 15 7 12 7 1 9 15 14 11 15 10 1
split_gain=19.2016 7.99419 5.95743 9.49206 7.02849 4.57189 3.29241 0.689422 0.00191011 0.000588484 0.000169033 8.1279e-05 2.48224e-05 1.44003e-05 1.23113e-05 1.13157e-05 1.26063e-05 1.42295e-05 8.03678e-06 5.89633e-06 3.2813e-06
threshold=-0.0024470725184453702 -0.06114538276926048 -0.11525082872921154 -0.061215139425657615 0.050636886276309016 -0.041089319592951049 -0.063281433201629281 -0.06263846045355255 0.045784816257864354 -0.045461184538123749 0.045809335668118123 0.014395521444718487 0.045843965424687154 -0.16427475994970167 -0.061138663515417267 -0.045283427354011467 -0.043962814499561902 0.094472774596705181 -0.045251153305700141 -0.06121219186007839 -0.11873654917031005
decision_type=2 2 2 2 2 2 2 2 2 2 2 2 2 2 2 2 2 2 2 2 2
left_child=1 -1 3 -3 -5 7 8 9 -4 -2 -11 -12 13 -13 18 16 -15 20 19 -14 -18
right_child=5 2 6 4 -6 -7 -8 -9 -10 10 11 12 14 15 -16 -17 17 -19 -20 -21 -22
leaf_value=0.21801399570113411 -0.094255783247851402 0.20518566734104554 -0.099601157027492837 0.10386170395367825 -0.096413653986548331 0.052400214598987999 0.067474870590619115 -0.017165180555465839 -0.094989994381362866 -0.093254297429904667 -0.092892666478466016 -0.091799602785734805 -0.091699050372926472 -0.092024294096837767 -0.092145316431268984 -0.0919330979271996 -0.092328904871418094 -0.09262103423820417 -0.091534278656288867 -0.091999596484076337 -0.092084606498458343
leaf_weight=3.0791911929845837 1.5557969808578551 4.1146658360958135 2.0642833784222607 3.915612380951643 3.1716570071876049 2.7209676429629317 1.8051127158105345 1.3154734559357155 1.590481463819742 1.407311718910935 1.1865991353988636 1.0656423568725619 1.2422818131744864 1.536034695804122 1.0809789486229417 1.2984730154275812 1.1274919174611602 1.362079784274101 1.0944347865879538 1.3755795545876024 1.0730521753430333
leaf_count=23 21 26 19 38 38 38 18 21 21 22 20 21 25 29 20 25 20 23 23 26 20
internal_value=-0.000358328 0.0699855 0.042629 0.0843748 0.0142355 -0.0682892 -0.0430202 -0.0868202 -0.0975945 -0.0924054 -0.0922116 -0.0921024 -0.0920259 -0.09214 -0.0918483 -0.0921966 -0.0922638 -0.092367 -0.0917618 -0.091857 -0.0922098
internal_weight=40.1832 19.741 16.6618 11.2019 7.08727 20.4422 5.45988 17.7212 3.65476 16.4058 14.85 13.4426 12.256 7.46277 4.79328 6.39713 5.09866 3.56262 3.7123 2.61786 2.20054
internal_count=537 183 160 102 76 354 58 316 40 295 274 252 232 138 94 117 92 63 74 51 40
is_linear=0
shrinkage=0.1


Tree=39
num_leaves=21
num_cat=0
split_feature=10 12 0 11 8 18 1 15 6 12 18 4 10 7 15 8 3 2 14 15
split_gain=2.73101 3.45221e-05 1.32869e-06 4.42776e-08 1.69747e-08 4.46996e-10 4.93496e-10 5.93719e-10 2.97103e-10 2.83661e-10 2.10593e-10 3.13514e-10 1.60121e-10 1.41371e-10 1.37473e-10 1.36167e-10 1.1353e-10 8.74701e-11 7.7518e-11 7.52592e-11
threshold=-0.061223043682753962 -0.085014479754062872 -0.067376367063708795 2.0500357159019131 -0.046360409018029271 -0.04408520288859228 -0.17754568908249538 -0.045333221556148516 0.75163128048074956 1.0000000180025095e-35 -0.044074378464862847 0.019561023644377069 -0.061212518263492603 0.045837614536890517 -0.045007284980803773 -0.046238152317314478 -0.084378827195976711 -0.050928369096497748 -0.043924612968559394 -0.045409449988768974
decision_type=2 2 2 2 2 2 2 2 2 2 2 2 2 2 2 2 2 2 2 2
left_child=-1 -2 -3 4 -4 16 -7 9 15 -8 -11 12 19 -13 -10 17 -6 -9 -15 -12
right_child=1 2 3 -5 5 6 7 8 14 10 11 13 -14 18 -16 -17 -18 -19 -20 -21
leaf_value=0.26428551485587359 -0.088917543865669815 -0.087991527523031701 -0.087676743881642663 -0.087739214984737024 -0.087598894353391354 -0.087602097364521903 -0.087625132842803474 -0.087606597064115929 -0.087599597898404782 -0.087608861785480233 -0.087619936832136647 -0.08761646401756748 -0.087623727787122532 -0.087612483436221675 -0.087608801924269397 -0.087617547279711355 -0.087607706914082484 -0.087612967378688317 -0.087605552861999295 -0.087613491304625313
leaf_weight=0.27444987767376017 0.30969990068115283 0.11318120034411538 0.043325931066647061 0.03065274772234261 0.026821902953088284 0.039582345169037469 0.032332962844520696 0.039984768023714423 0.035980501095764339 0.043733442435040959 0.035701993503607699 0.055688468390144408 0.057657817495055719 0.039320045383647084 0.029560128110460937 0.033377480925992575 0.032130606356076785 0.046762828016653657 0.027373857446946204 0.036774648120626807
leaf_count=43 22 18 19 10 21 30 20 29 28 31 23 37 36 27 21 22 23 32 20 25
internal_value=-0.0181627 -0.0880211 -0.0876741 -0.0876217 -0.0876163 -0.087612 -0.0876129 -0.0876137 -0.0876092 -0.0876162 -0.0876153 -0.0876164 -0.0876198 -0.0876127 -0.0876037 -0.0876121 -0.0876037 -0.08761 -0.0876096 -0.0876167
internal_weight=1.38409 1.10964 0.799944 0.686762 0.65611 0.612784 0.553831 0.514249 0.185666 0.328583 0.29625 0.252517 0.130134 0.122382 0.0655406 0.120125 0.0589525 0.0867476 0.0666939 0.0724766
internal_count=537 494 472 454 444 425 381 351 132 219 199 168 84 84 49 83 44 61 47 48
is_linear=0
shrinkage=0.1


Tree=40
num_leaves=18
num_cat=0
split_feature=18 8 1 11 14 16 0 6 16 17 3 15 2 7 13 19 5
split_gain=15.5809 10.6813 5.4076 4.46255 5.07291 4.1673 3.96658 3.85331 4.45748 3.74443 4.27031 4.96608 2.22975 1.74884 0.204702 0.00130082 0.000794769
threshold=-0.044075350787373867 -0.04628577356608992 -0.17754568908249538 0.18861459988714849 -0.043910750585128 -0.10828728818310036 -0.061940608001970827 0.81788209210897211 -0.096196026150694516 -0.063965707659135021 -0.10525592328675866 -0.045309016243920759 -0.10342357351074805 0.045824310038983865 -0.01946443466632292 -0.11682751489050174 -0.010027120620117831
decision_type=2 2 2 2 2 2 2 2 2 2 2 2 2 2 2 2 2
left_child=13 14 -3 5 6 -4 -5 9 12 -7 -11 -12 -9 15 -2 16 -1
right_child=1 2 3 4 -6 7 -8 8 -10 10 11 -13 -14 -15 -16 -17 -18
leaf_value=-0.10274273952294091 -0.071591573172465325 0.095887472368141574 -0.049690059607845116 0.0065543646337846186 0.038009324903068402 0.12512185300812956 -0.11449166764485708 -0.0048472760055155543 -0.059556873854082065 0.095241271415426168 -0.054329456792141642 0.066156698284444745 0.074573064086418547 -0.03879544886381199 -0.10447816516848521 -0.10392480560426849 -0.10083387160171153
leaf_weight=4.448553778231144 2.971987172961235 10.066316604614256 5.6442319452762595 4.4762030243873605 7.8342410922050467 7.4480517953634218 6.8499499559402475 6.3574294596910486 6.6901788562536231 9.4721957743167859 6.6216074377298337 7.0771005153656112 7.9626150429248819 6.4257581382989875 5.2119085043668729 4.3425497412681588 4.2793986275792122
leaf_count=31 19 37 27 20 31 28 35 28 32 35 27 27 33 31 34 29 33
internal_value=-0.000103257 0.0166592 0.0269903 0.0179165 -0.0238591 0.0318923 -0.0666531 0.0408111 0.00783115 0.0634413 0.0436148 0.00791675 0.0393142 -0.0815107 -0.0925354 -0.10251 -0.101807
internal_weight=114.18 94.684 86.5001 76.4338 19.1604 57.2734 11.3262 51.6292 21.0102 30.619 23.1709 13.6987 14.32 19.4963 8.1839 13.0705 8.72795
internal_count=537 413 360 323 86 237 55 210 93 117 89 54 61 124 53 93 64
is_linear=0
shrinkage=0.1


Tree=41
num_leaves=20
num_cat=0
split_feature=7 0 2 4 10 4 13 3 17 18 7 5 18 7 7 3 0 6 5
split_gain=12.8273 5.75552 4.91718 6.04179 4.74033 3.61809 2.93276 5.36429 3.82281 4.16887 0.689546 0.53199 0.000675313 0.000144466 0.000106517 7.71454e-05 2.82273e-05 1.8901e-05 9.57325e-06
threshold=0.04584690171315766 -0.060985061778799497 -0.050928369096497748 0.029293598043936091 -0.061205694187264841 0.0090004559743060205 0.13917380007705815 -0.12652011329396942 -0.065485873853789747 -0.044031320453968383 0.045830475240228437 0.0027169842741204824 -0.044033799460817959 0.04582908040160167 0.045826701798697821 -0.064639108604906084 -0.060907995511981616 0.52635232495962514 -0.01177921282422619
decision_type=2 2 2 2 2 2 2 2 2 2 2 2 2 2 2 2 2 2 2
left_child=5 -2 3 4 -3 10 7 -7 14 -10 12 -8 15 -13 -9 16 -1 18 -18
right_child=1 2 -4 -5 -6 6 11 8 9 -11 -12 13 -14 -15 -16 -17 17 -19 -20
leaf_value=-0.092470928305114442 -0.063320840321409944 0.15260952610152434 0.0023434495207483768 0.22238089853053797 -0.016803621242804708 0.14899679586087031 -0.020981323540878435 -0.093178549048421877 -0.049076868662087395 0.15096988243720788 -0.012325847430991712 -0.093393539395279154 -0.094223160603070968 -0.094667145916048731 -0.094244828281968659 -0.092857400315141933 -0.092371671645403525 -0.091652857417670736 -0.092007686986798953
leaf_weight=1.9999593347311 2.9443313032388714 3.2867250144481659 4.5480078682303402 4.0684198811650276 3.3199881911277771 2.4230624102056018 1.3635876886546601 2.094433337450027 2.2147848382592201 1.9668425545096395 1.1819552481174458 1.5233970955014231 2.4667221829295185 2.1441842503845692 1.6951036415994165 2.1431406810879716 1.1290294080972647 1.0751796774566171 2.0072637163102645
leaf_count=35 33 19 36 23 27 27 19 33 31 15 14 23 36 28 23 35 20 22 38
internal_value=-0.000508992 0.0646627 0.0894161 0.126512 0.0674765 -0.0436757 -0.0116375 0.0186985 -0.0209093 0.0450158 -0.0848481 -0.0743106 -0.0927693 -0.0941381 -0.0936555 -0.0923401 -0.0921616 -0.0920147 -0.0921387
internal_weight=45.5961 18.1675 15.2231 10.6751 6.60671 27.4286 15.4254 10.3942 7.97116 4.18163 12.0033 5.03117 10.8213 3.66758 3.78954 8.35457 6.21143 4.21147 3.13629
internal_count=537 138 105 69 46 399 199 129 102 46 200 70 186 51 56 150 115 80 58
is_linear=0
shrinkage=0.1


Tree=42
num_leaves=20
num_cat=0
split_feature=1 19 12 7 12 7 0 1 16 15 18 0 7 9 17 2 14 1 14
